9.098111987113952637e-01    9.836017489433288574e-01    -2.655302859055483911e-01
9.994922876358032227e-01    9.253832101821899414e-01    -2.379939341571619404e-01
9.994922876358032227e-01    9.253832101821899414e-01    -2.379939341571619404e-01
8.764397501945495605e-01    9.238548874855041504e-01    -2.173788369902313333e-01
8.764397501945495605e-01    9.238548874855041504e-01    -2.173788369902313333e-01
9.588083028793334961e-01    8.958374857902526855e-01    -2.002100309013300217e-01
9.588083028793334961e-01    8.958374857902526855e-01    -2.002100309013300217e-01
9.359380602836608887e-01    8.307849168777465820e-01    -1.985280617923149971e-01
9.359380602836608887e-01    8.307849168777465820e-01    -1.985280617923149971e-01
7.848041057586669922e-01    9.196161031723022461e-01    -1.933102621606133664e-01
7.429297566413879395e-01    9.683697223663330078e-01    -1.871348568737816465e-01
7.429297566413879395e-01    9.683697223663330078e-01    -1.871348568737816465e-01
8.718380331993103027e-01    9.059112071990966797e-01    -1.869460388660133532e-01
8.718380331993103027e-01    9.059112071990966797e-01    -1.869460388660133532e-01
8.019586205482482910e-01    9.757296442985534668e-01    -1.748232645889113701e-01
8.019586205482482910e-01    9.757296442985534668e-01    -1.748232645889113701e-01
7.956282496452331543e-01    9.254474639892578125e-01    -1.723384007260700956e-01
7.956282496452331543e-01    9.254474639892578125e-01    -1.723384007260700956e-01
8.139635324478149414e-01    8.566145300865173340e-01    -1.695861757585992724e-01
8.139635324478149414e-01    8.566145300865173340e-01    -1.695861757585992724e-01
7.017198801040649414e-01    9.999153017997741699e-01    -1.673052241423322040e-01
7.097775340080261230e-01    9.699563384056091309e-01    -1.654782927005062354e-01
7.097775340080261230e-01    9.699563384056091309e-01    -1.654782927005062354e-01
8.490656614303588867e-01    7.214287519454956055e-01    -1.548442968281761867e-01
9.686959385871887207e-01    6.114706397056579590e-01    -1.516791285585866178e-01
9.686959385871887207e-01    6.114706397056579590e-01    -1.516791285585866178e-01
8.345733284950256348e-01    8.062368631362915039e-01    -1.479299543894938562e-01
8.345733284950256348e-01    8.062368631362915039e-01    -1.479299543894938562e-01
7.927489280700683594e-01    7.522808313369750977e-01    -1.448116798394080973e-01
7.597759962081909180e-01    7.645280361175537109e-01    -1.308646840062066552e-01
7.696620821952819824e-01    9.969765543937683105e-01    -1.286893036438744864e-01
7.696620821952819824e-01    9.969765543937683105e-01    -1.286893036438744864e-01
8.792943954467773438e-01    7.152509689331054688e-01    -1.269478342967825524e-01
8.792943954467773438e-01    7.152509689331054688e-01    -1.269478342967825524e-01
9.731249213218688965e-01    7.264587879180908203e-01    -1.174573432335544593e-01
9.731249213218688965e-01    7.264587879180908203e-01    -1.174573432335544593e-01
9.339976906776428223e-01    5.513765811920166016e-01    -1.161171869596550055e-01
9.339976906776428223e-01    5.513765811920166016e-01    -1.161171869596550055e-01
6.477798819541931152e-01    9.111878871917724609e-01    -1.125314072894698786e-01
6.477798819541931152e-01    9.111878871917724609e-01    -1.125314072894698786e-01
8.565525412559509277e-01    5.835669040679931641e-01    -1.062753479107536869e-01
6.125240325927734375e-01    9.783162474632263184e-01    -1.026848978934041673e-01
6.125240325927734375e-01    9.783162474632263184e-01    -1.026848978934041673e-01
9.952338933944702148e-01    4.709362387657165527e-01    -9.933209374992774121e-02
9.952338933944702148e-01    4.709362387657165527e-01    -9.933209374992774121e-02
6.249568462371826172e-01    8.323345184326171875e-01    -9.604505032561773403e-02
6.249568462371826172e-01    8.323345184326171875e-01    -9.604505032561773403e-02
7.208274006843566895e-01    6.835541129112243652e-01    -9.149144212013288202e-02
6.412574052810668945e-01    8.919978737831115723e-01    -9.095472679601315780e-02
6.412574052810668945e-01    8.919978737831115723e-01    -9.095472679601315780e-02
8.833209872245788574e-01    5.048263072967529297e-01    -9.082399760023726620e-02
8.833209872245788574e-01    5.048263072967529297e-01    -9.082399760023726620e-02
6.940925121307373047e-01    6.718186736106872559e-01    -8.202969835738672943e-02
6.940925121307373047e-01    6.718186736106872559e-01    -8.202969835738672943e-02
6.486282348632812500e-01    6.803737878799438477e-01    -8.166362085538171611e-02
9.000618457794189453e-01    5.702276825904846191e-01    -8.075658187542023025e-02
9.000618457794189453e-01    5.702276825904846191e-01    -8.075658187542023025e-02
9.598928093910217285e-01    7.143501639366149902e-01    -8.033398650010034614e-02
5.528357625007629395e-01    8.280852437019348145e-01    -7.898410938951151705e-02
5.528357625007629395e-01    8.280852437019348145e-01    -7.898410938951151705e-02
8.715406656265258789e-01    4.612417817115783691e-01    -7.521419795121626894e-02
8.715406656265258789e-01    4.612417817115783691e-01    -7.521419795121626894e-02
6.776520013809204102e-01    7.001663446426391602e-01    -7.377813369753696837e-02
6.776520013809204102e-01    7.001663446426391602e-01    -7.377813369753696837e-02
5.273269414901733398e-01    8.192545771598815918e-01    -7.277583538479996672e-02
7.336341738700866699e-01    5.612191557884216309e-01    -7.007719639291565272e-02
7.336341738700866699e-01    5.612191557884216309e-01    -7.007719639291565272e-02
5.770250558853149414e-01    7.407825589179992676e-01    -6.994154985632065891e-02
5.770250558853149414e-01    7.407825589179992676e-01    -6.994154985632065891e-02
9.662915468215942383e-01    3.980859518051147461e-01    -6.944754182114164232e-02
9.662915468215942383e-01    3.980859518051147461e-01    -6.944754182114164232e-02
7.229422926902770996e-01    6.126261949539184570e-01    -6.747467452394405318e-02
6.370190382003784180e-01    6.357601284980773926e-01    -6.455733680598386981e-02
6.370190382003784180e-01    6.357601284980773926e-01    -6.455733680598386981e-02
6.667495369911193848e-01    6.206641197204589844e-01    -6.444104895410940337e-02
6.667495369911193848e-01    6.206641197204589844e-01    -6.444104895410940337e-02
6.705164909362792969e-01    9.596130847930908203e-01    -6.375024758697471483e-02
6.705164909362792969e-01    9.596130847930908203e-01    -6.375024758697471483e-02
5.758392214775085449e-01    7.618806362152099609e-01    -6.100074848333090355e-02
5.758392214775085449e-01    7.618806362152099609e-01    -6.100074848333090355e-02
9.523014426231384277e-01    3.918420672416687012e-01    -5.962210879577582029e-02
9.523014426231384277e-01    3.918420672416687012e-01    -5.962210879577582029e-02
4.196456074714660645e-01    9.669892191886901855e-01    -5.961383356783911402e-02
6.734439730644226074e-01    5.925945043563842773e-01    -5.781294713864630619e-02
6.734439730644226074e-01    5.925945043563842773e-01    -5.781294713864630619e-02
7.143776416778564453e-01    6.263244152069091797e-01    -5.725695992639420751e-02
7.143776416778564453e-01    6.263244152069091797e-01    -5.725695992639420751e-02
9.221292734146118164e-01    5.256682038307189941e-01    -5.701138514844666938e-02
9.221292734146118164e-01    5.256682038307189941e-01    -5.701138514844666938e-02
8.486376404762268066e-01    4.776234626770019531e-01    -5.391738579754636745e-02
8.486376404762268066e-01    4.776234626770019531e-01    -5.391738579754636745e-02
7.820070981979370117e-01    8.676507472991943359e-01    -5.325486031848881280e-02
7.820070981979370117e-01    8.676507472991943359e-01    -5.325486031848881280e-02
5.958451628684997559e-01    8.589689731597900391e-01    -5.262471699421228388e-02
5.958451628684997559e-01    8.589689731597900391e-01    -5.262471699421228388e-02
6.895137429237365723e-01    4.906058907508850098e-01    -5.219873526208127640e-02
6.895137429237365723e-01    4.906058907508850098e-01    -5.219873526208127640e-02
6.824863553047180176e-01    5.025074481964111328e-01    -5.194118932946622386e-02
6.824863553047180176e-01    5.025074481964111328e-01    -5.194118932946622386e-02
5.009540915489196777e-01    9.426636695861816406e-01    -5.134508079652222445e-02
5.458852648735046387e-01    7.491826415061950684e-01    -5.095900320884912127e-02
5.458852648735046387e-01    7.491826415061950684e-01    -5.095900320884912127e-02
9.292846322059631348e-01    8.367751836776733398e-01    -5.041555337930626879e-02
9.292846322059631348e-01    8.367751836776733398e-01    -5.041555337930626879e-02
9.535818696022033691e-01    6.392956972122192383e-01    -4.927066253037069854e-02
9.535818696022033691e-01    6.392956972122192383e-01    -4.927066253037069854e-02
7.573167681694030762e-01    4.438976049423217773e-01    -4.888883609470376368e-02
7.573167681694030762e-01    4.438976049423217773e-01    -4.888883609470376368e-02
4.903302788734436035e-01    8.400775194168090820e-01    -4.782613656607916097e-02
4.402776956558227539e-01    8.214502334594726562e-01    -4.681566011449998094e-02
4.402776956558227539e-01    8.214502334594726562e-01    -4.681566011449998094e-02
7.138882875442504883e-01    5.007709860801696777e-01    -4.385112357443675390e-02
7.138882875442504883e-01    5.007709860801696777e-01    -4.385112357443675390e-02
9.689884185791015625e-01    3.147163391113281250e-01    -4.353230604241283691e-02
9.689884185791015625e-01    3.147163391113281250e-01    -4.353230604241283691e-02
6.639321446418762207e-01    4.781222343444824219e-01    -4.344210340100174150e-02
6.639321446418762207e-01    4.781222343444824219e-01    -4.344210340100174150e-02
9.318115115165710449e-01    8.189933896064758301e-01    -4.300363563241786646e-02
4.602067470550537109e-01    7.352745532989501953e-01    -4.231258719903419063e-02
3.810372948646545410e-01    8.681680560111999512e-01    -4.071608587149751213e-02
7.727080583572387695e-01    4.007663130760192871e-01    -3.968975852087625045e-02
7.727080583572387695e-01    4.007663130760192871e-01    -3.968975852087625045e-02
7.822667360305786133e-01    3.811208605766296387e-01    -3.895661343785421227e-02
7.822667360305786133e-01    3.811208605766296387e-01    -3.895661343785421227e-02
5.255477428436279297e-01    6.107069253921508789e-01    -3.804903051064770225e-02
5.255477428436279297e-01    6.107069253921508789e-01    -3.804903051064770225e-02
8.389384150505065918e-01    9.297538399696350098e-01    -3.772584123681065743e-02
7.699944972991943359e-01    5.067414641380310059e-01    -3.729316858058451256e-02
9.159995317459106445e-01    5.175879597663879395e-01    -3.679450158087347461e-02
8.428769111633300781e-01    5.340179800987243652e-01    -3.650984030664490565e-02
8.428769111633300781e-01    5.340179800987243652e-01    -3.650984030664490565e-02
8.755691051483154297e-01    7.353524565696716309e-01    -3.609359364004273429e-02
8.755691051483154297e-01    7.353524565696716309e-01    -3.609359364004273429e-02
9.341444373130798340e-01    3.304204344749450684e-01    -3.559856333114960053e-02
8.513640761375427246e-01    3.298962712287902832e-01    -3.543825462021888556e-02
6.973079442977905273e-01    4.062613248825073242e-01    -3.541770662980140566e-02
9.470043182373046875e-01    3.603918552398681641e-01    -3.535584895249462012e-02
7.893961668014526367e-01    8.241617679595947266e-01    -3.509290835007451703e-02
4.880483746528625488e-01    6.857859492301940918e-01    -3.486100668589540291e-02
4.899768829345703125e-01    9.482994675636291504e-01    -3.419966681885105303e-02
4.899768829345703125e-01    9.482994675636291504e-01    -3.419966681885105303e-02
3.239392042160034180e-01    9.399781227111816406e-01    -3.368367325552073382e-02
3.239392042160034180e-01    9.399781227111816406e-01    -3.368367325552073382e-02
6.573716998100280762e-01    4.632177948951721191e-01    -3.362987196791925038e-02
9.800292253494262695e-01    4.013859629631042480e-01    -3.354807867938634780e-02
9.800292253494262695e-01    4.013859629631042480e-01    -3.354807867938634780e-02
4.717841744422912598e-01    7.727400064468383789e-01    -3.354243306225064558e-02
7.756133675575256348e-01    8.083574771881103516e-01    -3.314994169120930034e-02
7.756133675575256348e-01    8.083574771881103516e-01    -3.314994169120930034e-02
5.740120410919189453e-01    5.498247146606445312e-01    -3.229641495926336564e-02
5.740120410919189453e-01    5.498247146606445312e-01    -3.229641495926336564e-02
4.663212895393371582e-01    6.030693650245666504e-01    -3.224777245443215951e-02
4.663212895393371582e-01    6.030693650245666504e-01    -3.224777245443215951e-02
9.635556340217590332e-01    3.561746478080749512e-01    -3.024372834913103408e-02
9.635556340217590332e-01    3.561746478080749512e-01    -3.024372834913103408e-02
7.118320465087890625e-01    3.899069428443908691e-01    -2.987040667448323528e-02
8.188774585723876953e-01    4.722011089324951172e-01    -2.985956563657789567e-02
8.188774585723876953e-01    4.722011089324951172e-01    -2.985956563657789567e-02
6.619006395339965820e-01    3.705246448516845703e-01    -2.836420825491910505e-02
6.619006395339965820e-01    3.705246448516845703e-01    -2.836420825491910505e-02
2.918883562088012695e-01    9.864588379859924316e-01    -2.826031718573218318e-02
2.918883562088012695e-01    9.864588379859924316e-01    -2.826031718573218318e-02
3.727998733520507812e-01    9.355776309967041016e-01    -2.818562601231421744e-02
3.727998733520507812e-01    9.355776309967041016e-01    -2.818562601231421744e-02
8.820330500602722168e-01    6.766024231910705566e-01    -2.792606425030521450e-02
8.820330500602722168e-01    6.766024231910705566e-01    -2.792606425030521450e-02
8.701969981193542480e-01    3.067503571510314941e-01    -2.778679273973459068e-02
7.817830443382263184e-01    5.161373019218444824e-01    -2.637667452900849252e-02
3.912304043769836426e-01    6.339796185493469238e-01    -2.589369774846730574e-02
3.912304043769836426e-01    6.339796185493469238e-01    -2.589369774846730574e-02
3.871153593063354492e-01    9.265384674072265625e-01    -2.587784183622037978e-02
3.871153593063354492e-01    9.265384674072265625e-01    -2.587784183622037978e-02
6.251941323280334473e-01    6.366232037544250488e-01    -2.558124439602680461e-02
8.310586810111999512e-01    5.419307351112365723e-01    -2.549281840541548980e-02
8.310586810111999512e-01    5.419307351112365723e-01    -2.549281840541548980e-02
6.650422811508178711e-01    3.522524237632751465e-01    -2.488650287674746067e-02
3.404676318168640137e-01    7.593151926994323730e-01    -2.418560088141911979e-02
9.384128451347351074e-01    7.072588205337524414e-01    -2.418548965829525610e-02
9.384128451347351074e-01    7.072588205337524414e-01    -2.418548965829525610e-02
9.243423342704772949e-01    2.845238447189331055e-01    -2.397145246020093712e-02
3.579903244972229004e-01    7.245762348175048828e-01    -2.382119698721717888e-02
3.579903244972229004e-01    7.245762348175048828e-01    -2.382119698721717888e-02
8.155992031097412109e-01    6.831600666046142578e-01    -2.313689757365880451e-02
7.041130065917968750e-01    4.998265504837036133e-01    -2.254721069946203846e-02
3.776094913482666016e-01    7.211921811103820801e-01    -2.154158727581952093e-02
3.776094913482666016e-01    7.211921811103820801e-01    -2.154158727581952093e-02
2.845136523246765137e-01    9.738984107971191406e-01    -2.148493404747916363e-02
3.830577731132507324e-01    5.791876912117004395e-01    -2.107333637661558054e-02
6.702793240547180176e-01    4.803378582000732422e-01    -2.098694944110575736e-02
6.702793240547180176e-01    4.803378582000732422e-01    -2.098694944110575736e-02
3.348479866981506348e-01    6.745991110801696777e-01    -2.066941285739997552e-02
7.236652374267578125e-01    2.807483077049255371e-01    -2.008236861423982195e-02
7.926929593086242676e-01    4.019103646278381348e-01    -1.948748556921807429e-02
7.926929593086242676e-01    4.019103646278381348e-01    -1.948748556921807429e-02
6.742457151412963867e-01    3.004027605056762695e-01    -1.944501888738281101e-02
3.511707782745361328e-01    9.555770158767700195e-01    -1.927898687808023842e-02
3.271087408065795898e-01    6.589275598526000977e-01    -1.924669610395310371e-02
3.271087408065795898e-01    6.589275598526000977e-01    -1.924669610395310371e-02
9.497581720352172852e-01    2.798163890838623047e-01    -1.867357148116765078e-02
9.497581720352172852e-01    2.798163890838623047e-01    -1.867357148116765078e-02
5.994832515716552734e-01    3.401341438293457031e-01    -1.866450337486660546e-02
5.994832515716552734e-01    3.401341438293457031e-01    -1.866450337486660546e-02
3.560987710952758789e-01    5.885377526283264160e-01    -1.860402772725759657e-02
5.635491609573364258e-01    5.240487456321716309e-01    -1.813482309922071975e-02
5.635491609573364258e-01    5.240487456321716309e-01    -1.813482309922071975e-02
4.836176633834838867e-01    7.288210391998291016e-01    -1.780380480066889870e-02
4.836176633834838867e-01    7.288210391998291016e-01    -1.780380480066889870e-02
2.515366673469543457e-01    8.412482738494873047e-01    -1.754248368212973919e-02
7.349182367324829102e-01    3.082474470138549805e-01    -1.738899859804277082e-02
4.741140007972717285e-01    5.851674675941467285e-01    -1.737116815191619423e-02
4.741140007972717285e-01    5.851674675941467285e-01    -1.737116815191619423e-02
2.565461993217468262e-01    9.123073816299438477e-01    -1.714686179871394156e-02
2.565461993217468262e-01    9.123073816299438477e-01    -1.714686179871394156e-02
3.329758048057556152e-01    8.267192244529724121e-01    -1.683342954954875417e-02
3.546286225318908691e-01    5.660956501960754395e-01    -1.675996671827846562e-02
9.220234751701354980e-01    9.765890836715698242e-01    -1.674155115032462462e-02
9.220234751701354980e-01    9.765890836715698242e-01    -1.674155115032462462e-02
2.141410708427429199e-01    9.894140362739562988e-01    -1.574833513220409362e-02
2.482267618179321289e-01    8.767994642257690430e-01    -1.572513049428808304e-02
2.482267618179321289e-01    8.767994642257690430e-01    -1.572513049428808304e-02
3.984541296958923340e-01    6.390967369079589844e-01    -1.525193781418192861e-02
5.167214870452880859e-01    5.511954426765441895e-01    -1.453457464800417959e-02
5.167214870452880859e-01    5.511954426765441895e-01    -1.453457464800417959e-02
5.612334609031677246e-01    3.384012579917907715e-01    -1.449726348523860432e-02
7.442087531089782715e-01    3.628907799720764160e-01    -1.435142166636306851e-02
2.503603100776672363e-01    9.370445013046264648e-01    -1.429756816083743720e-02
3.603962063789367676e-01    5.444451570510864258e-01    -1.424973368078282822e-02
5.779573321342468262e-01    3.400052189826965332e-01    -1.361399195034749925e-02
6.270232200622558594e-01    2.777339220046997070e-01    -1.359839545157179828e-02
6.270232200622558594e-01    2.777339220046997070e-01    -1.359839545157179828e-02
5.325260162353515625e-01    3.265851140022277832e-01    -1.347462026652731029e-02
5.325260162353515625e-01    3.265851140022277832e-01    -1.347462026652731029e-02
7.699130773544311523e-01    3.348103165626525879e-01    -1.329612587678825723e-02
3.240948915481567383e-01    6.314512491226196289e-01    -1.312477531232932558e-02
6.917392015457153320e-01    2.348284721374511719e-01    -1.295249248362355214e-02
6.917392015457153320e-01    2.348284721374511719e-01    -1.295249248362355214e-02
3.198228478431701660e-01    7.532548904418945312e-01    -1.290596905415562941e-02
4.170020222663879395e-01    5.731661319732666016e-01    -1.282803107337153990e-02
7.146352529525756836e-01    2.338004708290100098e-01    -1.269396480467585402e-02
3.956415057182312012e-01    9.860208630561828613e-01    -1.251977127952425342e-02
3.956415057182312012e-01    9.860208630561828613e-01    -1.251977127952425342e-02
8.314360976219177246e-01    2.146860957145690918e-01    -1.237343535467669807e-02
6.347109675407409668e-01    2.578521370887756348e-01    -1.213900893756479464e-02
6.347109675407409668e-01    2.578521370887756348e-01    -1.213900893756479464e-02
8.280874490737915039e-01    4.833390712738037109e-01    -1.211780095949923503e-02
7.086018919944763184e-01    4.569621682167053223e-01    -1.198798012924238120e-02
1.960651874542236328e-01    9.393602013587951660e-01    -1.190337229720700961e-02
5.858107805252075195e-01    3.449464440345764160e-01    -1.169201522547021373e-02
4.947411417961120605e-01    3.128263354301452637e-01    -1.158422304869329879e-02
3.976047635078430176e-01    4.075134396553039551e-01    -1.122597845533520634e-02
3.976047635078430176e-01    4.075134396553039551e-01    -1.122597845533520634e-02
9.104756116867065430e-01    8.331122994422912598e-01    -1.114171680498706254e-02
4.389674663543701172e-01    7.100185751914978027e-01    -1.112536997543502743e-02
2.665365338325500488e-01    6.001855134963989258e-01    -1.103326590671362475e-02
2.452250123023986816e-01    6.471948623657226562e-01    -1.087865121002015191e-02
2.854589223861694336e-01    6.077941060066223145e-01    -1.082396948488732746e-02
2.854589223861694336e-01    6.077941060066223145e-01    -1.082396948488732746e-02
5.713824629783630371e-01    8.869281411170959473e-01    -1.082217251432625489e-02
5.713824629783630371e-01    8.869281411170959473e-01    -1.082217251432625489e-02
7.304213047027587891e-01    8.774567842483520508e-01    -1.023563272776084089e-02
7.304213047027587891e-01    8.774567842483520508e-01    -1.023563272776084089e-02
5.320246219635009766e-01    4.338753223419189453e-01    -1.012896593673561114e-02
2.505649924278259277e-01    6.293071508407592773e-01    -1.007471573593568016e-02
3.477948904037475586e-01    4.202978014945983887e-01    -1.005358182438874197e-02
6.041799783706665039e-01    9.514707326889038086e-01    -9.789507953009644534e-03
5.955994725227355957e-01    3.414614200592041016e-01    -9.695567453135919833e-03
5.955994725227355957e-01    3.414614200592041016e-01    -9.695567453135919833e-03
9.358514547348022461e-01    1.544932723045349121e-01    -9.677999608161366382e-03
7.617759704589843750e-01    1.908985972404479980e-01    -9.566699786573804043e-03
9.832403063774108887e-01    1.393706798553466797e-01    -9.321862594409695280e-03
4.204334616661071777e-01    3.886326551437377930e-01    -9.206268228984171992e-03
7.133612632751464844e-01    1.890786290168762207e-01    -8.893291061403905615e-03
4.611598849296569824e-01    8.247944712638854980e-01    -8.867285491209414214e-03
4.611598849296569824e-01    8.247944712638854980e-01    -8.867285491209414214e-03
2.401478886604309082e-01    5.922697782516479492e-01    -8.866999114996616804e-03
2.401478886604309082e-01    5.922697782516479492e-01    -8.866999114996616804e-03
2.435805797576904297e-01    7.645145058631896973e-01    -8.662666767846693636e-03
6.720467209815979004e-01    2.310451865196228027e-01    -8.619692315275432476e-03
3.497823476791381836e-01    8.419451713562011719e-01    -8.544539161457594123e-03
2.817645668983459473e-01    5.292429327964782715e-01    -8.544538259323259874e-03
8.661724925041198730e-01    2.908082008361816406e-01    -8.534640911658297052e-03
4.759755134582519531e-01    7.211631536483764648e-01    -8.325474793802316656e-03
1.526396274566650391e-01    9.980136156082153320e-01    -8.188439372575557693e-03
3.950628638267517090e-01    8.878411650657653809e-01    -8.163055639797736282e-03
2.236933708190917969e-01    7.305484414100646973e-01    -8.094557608158864034e-03
8.017379045486450195e-01    1.605681180953979492e-01    -7.955525566682473265e-03
7.488807439804077148e-01    1.867826581001281738e-01    -7.945111806118105788e-03
4.070442318916320801e-01    3.583945631980895996e-01    -7.920841750655502680e-03
5.405588150024414062e-01    2.648628354072570801e-01    -7.846958917286905519e-03
7.450792789459228516e-01    2.322847247123718262e-01    -7.829929599164163825e-03
8.664768338203430176e-01    2.582843303680419922e-01    -7.769074204012540313e-03
5.094073414802551270e-01    2.469685673713684082e-01    -7.688440985207452456e-03
5.821903944015502930e-01    2.778370976448059082e-01    -7.597750281822184849e-03
3.055073618888854980e-01    4.612070918083190918e-01    -7.538681854667779458e-03
5.057386159896850586e-01    6.683855056762695312e-01    -7.447306292522049009e-03
3.918864130973815918e-01    4.453502893447875977e-01    -7.395289968514164036e-03
3.918864130973815918e-01    4.453502893447875977e-01    -7.395289968514164036e-03
6.335179805755615234e-01    2.644088268280029297e-01    -7.299135851106010320e-03
6.159218549728393555e-01    3.597645163536071777e-01    -7.279306318543427891e-03
4.420816898345947266e-01    3.212095499038696289e-01    -7.199786182094364446e-03
3.652411103248596191e-01    6.392098069190979004e-01    -7.112184744691815719e-03
3.514753580093383789e-01    3.505387306213378906e-01    -7.081410584224700523e-03
3.514753580093383789e-01    3.505387306213378906e-01    -7.081410584224700523e-03
7.280347347259521484e-01    2.715463042259216309e-01    -6.947265144483671766e-03
6.524153947830200195e-01    4.454389214515686035e-01    -6.770888473009339242e-03
7.418561577796936035e-01    1.764045357704162598e-01    -6.712030613825691570e-03
3.179379105567932129e-01    4.784595966339111328e-01    -6.647600470201606854e-03
4.461798071861267090e-01    2.918691635131835938e-01    -6.539684458768463791e-03
6.337440013885498047e-01    3.141365051269531250e-01    -6.459494972652279551e-03
8.844670057296752930e-01    1.305456161499023438e-01    -6.446755941914680994e-03
4.924641847610473633e-01    3.915505409240722656e-01    -6.403458564256977840e-03
4.027487635612487793e-01    3.257800936698913574e-01    -5.984070573937129781e-03
3.869686722755432129e-01    8.914296030998229980e-01    -5.947764805893501587e-03
2.795700430870056152e-01    4.233079552650451660e-01    -5.918103534096551786e-03
9.061515927314758301e-01    1.446581482887268066e-01    -5.763597617415631286e-03
5.916381478309631348e-01    9.971796274185180664e-01    -5.712466037917954612e-03
1.498983502388000488e-01    9.482421875000000000e-01    -5.583127928065864838e-03
3.801374435424804688e-01    2.873236536979675293e-01    -5.498879763886907641e-03
3.801374435424804688e-01    2.873236536979675293e-01    -5.498879763886907641e-03
3.869127035140991211e-01    9.567739367485046387e-01    -5.361930297091971678e-03
4.388551115989685059e-01    2.992521524429321289e-01    -5.348019751551777272e-03
6.243916153907775879e-01    2.691159248352050781e-01    -5.314749716625592757e-03
4.610961079597473145e-01    5.026505589485168457e-01    -5.177860535519853563e-03
7.110581994056701660e-01    4.898742437362670898e-01    -5.070463302443930891e-03
3.034031391143798828e-01    6.423485875129699707e-01    -5.020156568553085265e-03
6.404054760932922363e-01    2.055064439773559570e-01    -4.866679493085025558e-03
3.490643501281738281e-01    7.066684365272521973e-01    -4.798959420628563441e-03
2.621142268180847168e-01    3.814953565597534180e-01    -4.761026048319893025e-03
6.286511421203613281e-01    2.325448989868164062e-01    -4.628382696092190295e-03
4.163693189620971680e-01    2.534229755401611328e-01    -4.619998717758186380e-03
3.653288483619689941e-01    4.309348464012145996e-01    -4.597798434008489032e-03
2.006711363792419434e-01    4.972446560859680176e-01    -4.544792918306149627e-03
9.074286222457885742e-01    1.568770408630371094e-01    -4.527710371075784578e-03
6.643345355987548828e-01    1.638575792312622070e-01    -4.493871440249192113e-03
8.308709263801574707e-01    2.490140795707702637e-01    -4.466292774331383046e-03
4.906924366950988770e-01    2.138244509696960449e-01    -4.422762721645374755e-03
3.279390931129455566e-01    3.201599121093750000e-01    -4.362982750333975999e-03
2.505804300308227539e-01    4.095925092697143555e-01    -4.297103933407595173e-03
3.603088259696960449e-01    7.038001418113708496e-01    -4.256061164076140914e-03
3.085891604423522949e-01    3.060241937637329102e-01    -4.141606873715212959e-03
6.721642017364501953e-01    1.842994689941406250e-01    -4.114259674834943453e-03
3.142216205596923828e-01    3.024179339408874512e-01    -4.070054682530666566e-03
1.227535009384155273e-01    9.178313612937927246e-01    -4.048763613366059694e-03
7.621494531631469727e-01    1.195330023765563965e-01    -4.015644025281156146e-03
5.881506800651550293e-01    7.102808356285095215e-01    -3.957539819369922975e-03
9.574280977249145508e-01    6.774554252624511719e-01    -3.943498736514818893e-03
9.151556491851806641e-01    1.513646841049194336e-01    -3.889831606091646334e-03
8.088791966438293457e-01    1.123360395431518555e-01    -3.842638881600083951e-03
8.503586053848266602e-01    1.038142442703247070e-01    -3.829580345690115385e-03
3.629794120788574219e-01    4.348478317260742188e-01    -3.809059271613479160e-03
6.736416220664978027e-01    2.044570446014404297e-01    -3.766960441458677093e-03
3.060318231582641602e-01    8.593743443489074707e-01    -3.751946426162436430e-03
5.764205455780029297e-01    1.512692570686340332e-01    -3.728330458898803691e-03
2.535215616226196289e-01    4.258118867874145508e-01    -3.727997592582952581e-03
5.096107125282287598e-01    1.869927644729614258e-01    -3.669412453086428553e-03
3.598234653472900391e-01    3.281928896903991699e-01    -3.669391371617110060e-03
1.245759725570678711e-01    7.920105457305908203e-01    -3.617054455620928328e-03
6.784070730209350586e-01    1.375303268432617188e-01    -3.521174224281184515e-03
2.111049542375177113e-01    4.843739936282616121e-01    -3.445066594175612024e-03
2.985617518424987793e-01    3.864722847938537598e-01    -3.427773749830242012e-03
3.323832154273986816e-01    2.922348380088806152e-01    -3.415823808908145017e-03
8.126006722450256348e-01    3.280734419822692871e-01    -3.345904430927716059e-03
4.049221873283386230e-01    2.249279618263244629e-01    -3.331866320260766425e-03
5.517672896385192871e-01    1.602219939231872559e-01    -3.175367184866748332e-03
1.351573467254638672e-01    7.040534019470214844e-01    -3.167801713980020976e-03
5.282924771308898926e-01    1.631239056587219238e-01    -3.151053505249192324e-03
5.755000710487365723e-01    1.479600071907043457e-01    -3.110144584853279538e-03
4.936859011650085449e-01    1.765996217727661133e-01    -3.089605979968452348e-03
3.379601836204528809e-01    2.757796049118041992e-01    -2.936651500629719296e-03
5.202390053696575034e-01    2.220202010193438602e-01    -2.930898917479643397e-03
2.643489837646484375e-01    4.527179598808288574e-01    -2.927574951739617300e-03
9.895396232604980469e-01    7.832258939743041992e-02    -2.892188168405307892e-03
2.235136032104492188e-01    5.170786380767822266e-01    -2.821044904306822983e-03
2.256273627281188965e-01    4.767749309539794922e-01    -2.778210873473498967e-03
6.089668273925781250e-01    6.148647069931030273e-01    -2.773668314631772859e-03
9.776967763900756836e-02    9.006427526473999023e-01    -2.648361824667623370e-03
5.123121142387390137e-01    2.584866881370544434e-01    -2.606854397309481351e-03
4.608950614929199219e-01    4.215078949928283691e-01    -2.597815288382814870e-03
3.425614833831787109e-01    3.726550936698913574e-01    -2.531116034626332972e-03
7.064584493637084961e-01    1.011985540390014648e-01    -2.459191994781233410e-03
6.688252687454223633e-01    5.127758979797363281e-01    -2.438641116513146859e-03
9.176104068756103516e-01    3.187129497528076172e-01    -2.403566129515221240e-03
9.939706325531005859e-02    8.915765285491943359e-01    -2.318919114884880704e-03
4.771145582199096680e-01    1.787019371986389160e-01    -2.306245415432887046e-03
5.038720369338989258e-01    3.368687629699707031e-01    -2.304343212753067263e-03
8.455247879028320312e-01    8.039849996566772461e-02    -2.297671406401952717e-03
3.742929697036743164e-01    2.359403967857360840e-01    -2.284796087039169237e-03
7.882382869720458984e-01    1.425913572311401367e-01    -2.266471370628844826e-03
5.928422808647155762e-01    1.183995008468627930e-01    -2.242874410878046600e-03
7.558425664901733398e-01    2.303107976913452148e-01    -2.218130281869661307e-03
1.492635011672973633e-01    5.845960378646850586e-01    -2.125896784478553680e-03
9.488149285316467285e-01    7.562977075576782227e-02    -2.093749804386613959e-03
2.399893403053283691e-01    5.955259799957275391e-01    -2.089312690210611174e-03
3.759170174598693848e-01    1.727223992347717285e-01    -2.081811691873555227e-03
7.738853096961975098e-01    1.188282370567321777e-01    -2.060524427027947067e-03
2.985815936683575145e-01    4.763567228644152718e-01    -2.054039789091562183e-03
4.953475594520568848e-01    8.343191146850585938e-01    -2.042298808534310801e-03
5.591099858283996582e-01    2.208127379417419434e-01    -2.019603291170730345e-03
6.265122890472412109e-01    1.232814788818359375e-01    -2.000848556420271353e-03
1.333698630332946777e-01    9.550052881240844727e-01    -1.990995918484600186e-03
4.932104945182800293e-01    1.277749538421630859e-01    -1.960204763463089736e-03
3.601835025241778010e-01    2.353206327578134249e-01    -1.942295727343576342e-03
3.237302980183168755e-01    2.012864888105049821e-01    -1.941044760009863045e-03
2.393222916556922431e-01    2.629224569230502739e-01    -1.905193678342151451e-03
3.655251815716258346e-01    1.695115157960142283e-01    -1.802097585917255586e-03
9.544541284973558082e-02    7.129233934753448354e-01    -1.794048018422163011e-03
7.349547386169567043e-01    8.046923394166008436e-02    -1.685341183535616748e-03
2.388327121734619141e-01    3.047029972076416016e-01    -1.679180132076823172e-03
1.310569643974304199e-01    4.587287902832031250e-01    -1.664439960756149530e-03
3.678000569343566895e-01    8.307479619979858398e-01    -1.657208347692800841e-03
9.246343970298767090e-01    7.668709754943847656e-02    -1.522356427501956678e-03
5.204521278065292744e-01    1.106656368863931927e-01    -1.512713603545052859e-03
5.493080615997314453e-01    1.163791418075561523e-01    -1.507579814199543067e-03
1.332745552062988281e-01    9.050852656364440918e-01    -1.502568487357794445e-03
3.991461973990047540e-01    2.578910490655686449e-01    -1.470693411128163978e-03
8.500282168388366699e-01    6.424993276596069336e-02    -1.465563249761093773e-03
6.923600163600104329e-01    1.415240345671331113e-01    -1.455066363394430734e-03
2.020174860954284668e-01    2.654262781143188477e-01    -1.400681486631501129e-03
1.353644132614135742e-01    4.792424440383911133e-01    -1.386725747894665146e-03
4.591722618108447507e-01    1.441177424975217947e-01    -1.365914026889985654e-03
7.757666110992431641e-01    6.736278533935546875e-02    -1.354584530716915983e-03
2.569714784622192383e-01    2.592257261276245117e-01    -1.300188470446501064e-03
3.140791058540344238e-01    1.751641035079956055e-01    -1.289315906558530581e-03
2.659831755509672324e-01    1.917276856844817856e-01    -1.284457275520054821e-03
9.813509583473205566e-01    1.219826340675354004e-01    -1.274019326432543255e-03
1.475074887275695801e-01    3.820323944091796875e-01    -1.268680660640523301e-03
6.664129740571189675e-01    7.741619157146471808e-02    -1.259283494131533147e-03
1.328051090240478516e-01    4.593243002891540527e-01    -1.252398503956937215e-03
6.262012124061584473e-01    5.210178494453430176e-01    -1.242105834598800952e-03
1.231880784034729004e-01    8.139687180519104004e-01    -1.237307051375701860e-03
7.282056212425231934e-01    6.806963682174682617e-02    -1.225565727972862187e-03
2.249359445389451373e-01    6.981452297336284696e-01    -1.204022370328367919e-03
8.874740823856113181e-01    1.078725756493354032e-01    -1.199465361400716031e-03
8.268678188323974609e-02    6.527060270309448242e-01    -1.195283754772171088e-03
2.895618425219706471e-01    2.251675900185420853e-01    -1.160933074422888485e-03
9.459696412086486816e-01    6.789171695709228516e-02    -1.138984237637386118e-03
2.185192108154296875e-01    2.617622613906860352e-01    -1.111530522019125956e-03
7.048756480216979980e-01    6.726145744323730469e-02    -1.106208954898102014e-03
1.341529488563537598e-01    3.717077970504760742e-01    -1.086056541270465688e-03
1.908596867295383193e-01    2.862057415668687321e-01    -1.082714582690413527e-03
9.807244927490651465e-01    1.133096306529089853e-01    -9.849660728800855268e-04
3.620215614276633409e-01    2.328240482648498422e-01    -9.804110868528723762e-04
5.705021619796752930e-01    1.676198244094848633e-01    -9.682327763123574653e-04
8.441060781478881836e-02    8.822976946830749512e-01    -9.664858764475676252e-04
6.398794054985046387e-01    8.499753475189208984e-02    -9.206391225555634683e-04
3.300474286079406738e-01    2.193537950515747070e-01    -3.969817918653709902e-04
2.883493900299072266e-01    2.756397128105163574e-01    -6.188796073577459327e-04
4.596255678579689863e-01    2.504721467649372313e-01    -2.791600338211986261e-05
4.276019930839538574e-01    8.244872093200683594e-03    -2.462556765212590990e-06
4.441699092484469591e-01    3.454615305851792273e-02    -3.382345503655577026e-06
4.587537681496651198e-01    2.626952415795679244e-02    -2.348312503923769733e-05
3.677432931168785335e-01    1.898700111335502663e-02    -1.669582519160082662e-05
3.410351276397705078e-01    1.269068717956542969e-01    -8.514576209606240830e-04
3.205149769783020020e-01    3.865116834640502930e-02    -4.026521471189266262e-05
3.423233032226562500e-01    4.390835762023925781e-03    -3.697943396592223912e-07
3.402329683303833008e-01    4.919171333312988281e-02    -1.398809730548664413e-04
3.366837501525878906e-01    2.987742424011230469e-02    -4.945023950558829074e-05
3.401989936828613281e-01    7.693088054656982422e-02    -1.674900042340720611e-04
3.358755707740783691e-01    7.863163948059082031e-02    -9.030067297065589920e-05
4.212195277214050293e-01    7.534319162368774414e-02    -2.009589635687454058e-04
3.797453045845031738e-01    1.232853531837463379e-01    -5.975546222966644262e-04
4.248022151410125735e-01    1.136722507542262672e-01    -8.648682885162818027e-04
2.817829251289367676e-01    9.025549888610839844e-02    -3.223622135308543222e-04
3.188754916191101074e-01    1.565931439399719238e-01    -8.174521251652417568e-04
2.791652679443359375e-01    6.259065866470336914e-02    -1.083390940160525461e-04
2.805854082107543945e-01    2.451115846633911133e-02    -1.191730656994457030e-05
2.662065905841005109e-01    4.831673355584079066e-02    -5.905037037771621386e-05
2.543920278549194336e-01    1.879765391349792480e-01    -3.993269826191008648e-04
3.010922899849394763e-01    1.183125021111563063e-01    -5.189575316601949392e-04
2.428268856102936968e-01    1.119908856977713113e-01    -3.482214665919732954e-04
2.398198487014509550e-01    5.562103090895043761e-02    -8.178460957097749063e-05
2.462258338928222656e-01    1.593628525733947754e-01    -6.282747848270868463e-04
2.425853660403738676e-01    3.489045429276754068e-02    -1.393205598946648423e-05
2.376503944396972656e-01    1.431387066841125488e-01    -5.724764764928544358e-04
2.211364507675170898e-01    1.787215471267700195e-02    -5.779366482266446342e-06
2.332195043563842773e-01    2.000266313552856445e-02    -2.318053421885236466e-06
2.267808318138122559e-01    6.069779396057128906e-02    -9.183567376288389510e-05
2.241162183187458412e-01    3.449544113986702243e-02    -2.746144555625838556e-05
3.253676491603186283e-01    4.171869093054592081e-02    -6.234102330459287964e-05
2.283415794372558594e-01    1.430651545524597168e-01    -3.577851848217934532e-04
1.505849957466125488e-01    1.015796661376953125e-01    -1.087518982155747700e-04
1.426792740821838379e-01    1.258813738822937012e-01    -1.536112742972409303e-04
1.797857284545898438e-01    1.311147212982177734e-01    -2.689256715890263522e-04
1.940878629684448242e-01    1.390114426612854004e-01    -2.832315487021693661e-04
3.771620988845825195e-02    5.960446596145629883e-02    -2.259703976762823223e-06
1.562371253967285156e-01    7.646185159683227539e-02    -5.823558929627961443e-05
1.924572176000978740e-01    8.232758628666116130e-02    -1.150262560920939619e-04
1.216608881950378418e-01    2.589738368988037109e-02    -3.313562442054433140e-06
1.362724900245666504e-01    4.830622673034667969e-02    -1.522209936523375446e-05
2.932578325271606445e-02    8.833408355712890625e-05    -2.310516594404913370e-12
1.190505027770996094e-01    7.292479276657104492e-02    -2.861940984911125142e-05
2.942705154418945312e-02    3.706830739974975586e-02    -5.939847438962273260e-07
7.964438199996948242e-02    1.282036304473876953e-03    -5.192835466981444146e-09
1.439947788944514750e-01    7.557714573658726176e-02    -1.483402969013309355e-06
1.316605296065260777e-01    6.940948451059587854e-02    -9.592177346893945890e-06
8.970904752274926064e-02    4.256794692947317438e-02    -1.894567888438534175e-06
1.943180952701947517e-01    5.765192340925717057e-02    -5.385579028607021223e-05
5.717626226655516536e-02    7.041775366973202161e-04    -7.453883393548648787e-10
3.454765152143117468e-02    5.394079814877813378e-02    -9.436744835747647300e-07
1.593515106840902584e-01    8.591265935427752631e-02    -7.384432619085781898e-05
1.266354322433471680e-01    1.456528306007385254e-01    -3.876207397576136783e-05
1.314022541046142578e-01    1.500580310821533203e-01    -1.782961333235873202e-04
1.257516741752624512e-01    1.512587070465087891e-01    -1.476317025796406075e-04
1.396238207817077637e-01    2.829402089118957520e-01    -5.258060496618642072e-05
1.592820882797241211e-01    2.406685948371887207e-01    -6.319265477369713328e-04
2.143893241882324219e-01    2.204326391220092773e-01    -3.759143870200048901e-04
1.721171736717224121e-01    1.657059192657470703e-01    -2.409021797545146638e-04
1.355329751968383789e-01    2.549035549163818359e-01    -4.019809690762234794e-04
1.644321900839895156e-01    1.899279881688850646e-01    -3.270862597982188862e-04
1.871512177866118121e-01    2.087905662784203531e-01    -6.905033360694811349e-04
3.367674350738525391e-02    2.006564736366271973e-01    -2.237201293043064378e-05
7.413297891616821289e-02    1.251543760299682617e-01    -1.904175409074416637e-05
2.426135540008544922e-02    1.247258782386779785e-01    -1.376269745399884998e-06
4.692059008086934407e-02    1.023964646452208832e-01    -1.024916281826901392e-05
6.045623390603667435e-02    1.637179187804056191e-01    -1.773585582097044917e-05
4.806717400474561086e-02    1.267277177484766593e-01    -1.784042557933229869e-05
7.328434032597350156e-02    2.495965766464630087e-01    -5.621001916884847352e-05
1.621300781968383897e-01    1.834897979349189578e-01    -1.050836977947414258e-05
9.113053083419799805e-01    2.523070573806762695e-02    -2.232566422250569535e-04
9.677051305770874023e-01    4.529833793640136719e-03    -8.810830921088926842e-06
8.610721071295949214e-01    6.159728031626119510e-02    -1.236315319870265295e-04
5.972274541854858398e-01    2.435765862464904785e-01    -5.499458423690394655e-04
6.228890419006347656e-01    1.473296284675598145e-01    -3.705832129693591745e-04
6.133229136466979980e-01    1.953045129776000977e-01    -5.535340087606343888e-06
5.762176855442571188e-01    2.884754087187032037e-02    -3.820782331500424819e-05
4.983285069465637207e-01    6.817615032196044922e-02    -4.998878809814227614e-04
5.613760948181152344e-01    1.079323887825012207e-01    -1.924901663557077687e-04
5.631104707717895508e-01    6.745266914367675781e-02    -5.318699756632535572e-04
5.775325547698142437e-01    8.166577396217204743e-02    -2.036153292624220230e-04
5.515073312322349430e-01    7.359962398870349698e-02    -3.791169639343018247e-05
5.258995423851877682e-01    8.282862108535667123e-02    -6.745353593265037513e-04
6.236360073089599609e-01    2.988052368164062500e-02    -1.424882022425267300e-04
6.040641400727797539e-01    7.348586343143451161e-02    -3.968999843229593320e-04
6.583257317543029785e-01    1.918339729309082031e-02    -7.641982340360282998e-05
6.529890706645326004e-01    8.135003133884462570e-03    -8.800107089565198080e-09
7.458381056785583496e-01    3.298634290695190430e-02    -2.498758816627515839e-04
7.143846750259399414e-01    3.003299236297607422e-02    -2.289461161292620495e-04
7.504789233207702637e-01    6.312537193298339844e-02    -5.487342519881531575e-04
7.467045187950134277e-01    1.354777216911315918e-01    -4.421429549028528853e-04
7.153153449977983636e-01    1.060527811853006208e-01    -5.446054213777872443e-04
7.035376392173103843e-01    1.152468381586146673e-01    -8.737349884773318136e-04
8.017644286155700684e-01    2.209575176239013672e-01    -1.062526968682734111e-07
9.217107954072821796e-01    2.228345458864283979e-01    -5.432834512366843254e-05
8.041290640830993652e-01    2.732262611389160156e-01    -8.184617447796991045e-04
8.395686745643615723e-01    4.006522297859191895e-01    -2.722494481529042350e-06
7.582353353500366211e-01    5.167636871337890625e-01    -1.735902417932988669e-04
8.016706448785292372e-01    4.976232835518421549e-01    -2.627464404043440777e-04
9.181872572710023106e-02    4.107100289223473699e-01    -4.614098836960185690e-04
1.964521408081054688e-02    4.415931105613708496e-01    -3.371026867115418642e-05
6.374609470367431641e-02    4.111744165420532227e-01    -2.671747170695776123e-04
2.558189630508422852e-02    4.398904442787170410e-01    -5.345292135258240273e-06
6.586271524429321289e-02    4.338821768760681152e-01    -1.999404435313867007e-05
1.044231057167053223e-01    4.219914078712463379e-01    -1.248852597318837678e-04
6.265461444854736328e-03    4.424005746841430664e-01    -3.524302475005246579e-06
1.145040392875671387e-01    3.344221711158752441e-01    -6.342376324510022199e-04
1.041854619979858398e-01    3.420705795288085938e-01    -4.374584017009183225e-05
1.293864846229553223e-01    3.653423190116882324e-01    -8.387042276024423305e-04
1.416681408882141113e-01    4.207211136817932129e-01    -2.949797508010532283e-04
1.791880130767822266e-01    3.795908093452453613e-01    -1.550358345346852351e-04
5.275440216064453125e-02    3.646650910377502441e-01    -4.353173051982608895e-05
3.771114349365234375e-02    3.313942551612854004e-01    -6.004057273258065516e-05
1.554959670909775715e-01    3.946610878619562501e-01    -1.278299756170714362e-04
1.438972504456519919e-01    3.783234983027587428e-01    -3.821320908911940732e-04
1.633107662200927734e-02    3.315008282661437988e-01    -1.107666197897575242e-05
2.806299924850463867e-02    3.434169292449951172e-01    -5.600057728995987017e-06
6.136655807495117188e-03    3.504443168640136719e-01    -2.156353399674052148e-06
2.392291811932520731e-03    4.436090305561036784e-01    -7.134893413798202245e-08
1.136021611464690939e-01    3.750158427324390420e-01    -7.897120563971490263e-04
1.341907573383669672e-01    3.841958905787264955e-01    -8.563760174167158032e-04
6.035576166807866266e-02    3.137271196855946909e-01    -2.303999932800281612e-05
1.376955966785179675e-01    3.945501714545125438e-01    -7.990951318931884201e-04
2.092674694498984286e-02    3.909019600719734755e-01    -3.075061451927477645e-05
7.081759360043593521e-02    4.460051250186780614e-01    -2.396684651594251211e-04
1.220621997967043931e-01    3.519094818635222222e-01    -8.103531878520252611e-04
5.122559568369731975e-02    3.685465067163254949e-01    -1.248516687781816930e-04
1.122460532989082577e-01    3.425728409901374061e-01    -5.258527497768515462e-04
3.432726860046386719e-02    5.206086039543151855e-01    -9.881830732784709190e-05
8.170050382614135742e-02    5.939347147941589355e-01    -8.785839548254442428e-04
3.001821041107177734e-02    4.986724257469177246e-01    -8.477038790142315725e-05
3.296297788619995117e-02    5.193207859992980957e-01    -1.106462985451416356e-04
8.690041303634643555e-02    5.237127542495727539e-01    -9.069269466950521680e-04
9.599101543426513672e-02    5.258443355560302734e-01    -7.876305504639118582e-04
3.822451829910278320e-02    5.420989990234375000e-01    -1.683772248748522911e-04
2.139359712600708008e-02    5.919770598411560059e-01    -1.745482856284991138e-06
3.650403022766113281e-02    5.273115038871765137e-01    -1.667653533476608706e-04
3.343458133766695310e-03    6.050741054076428371e-01    -1.799489839261172419e-06
7.403489591253638313e-02    5.585930998938430925e-01    -3.415231542239690883e-04
5.829765679048655187e-04    4.737245912452633378e-01    -1.786017866883224299e-08
9.641619318839229902e-02    4.883472896761303916e-01    -4.503009182790172738e-04
9.430822155911994242e-02    4.772942304967790483e-01    -7.402003552195697902e-04
6.252324839611980711e-02    5.926941546573296637e-01    -1.553845433125576880e-06
1.735428571701049805e-01    5.276190042495727539e-01    -3.767920512749086694e-04
2.974146360366880515e-01    5.312911253157518443e-01    -8.986536528188689935e-06
2.032046914100646973e-01    4.970081448554992676e-01    -8.562263935214817559e-04
6.564730405807495117e-02    7.157382369041442871e-01    -4.295537033279891634e-04
2.007788419723510742e-02    7.129566073417663574e-01    -4.754338116851273004e-05
8.930687827525558148e-03    6.922999778377270097e-01    -4.819087356288009658e-07
1.205980777740478516e-03    6.352697014808654785e-01    -6.312320888256340087e-08
3.873664140701293945e-02    6.617775559425354004e-01    -2.266956313239541749e-07
3.910595178604125977e-02    6.777303218841552734e-01    -2.075786618103776424e-04
3.001093864440917969e-04    6.522500514984130859e-01    -1.638458422661355744e-08
1.718759536743164062e-02    6.610940098762512207e-01    -5.505201242469708874e-05
9.415070139843861874e-02    7.259418368177449343e-01    -8.769391717100708590e-06
1.515194681556387424e-01    7.330452366406045028e-01    -2.514705404995076755e-04
2.814847230911254883e-02    8.280411362648010254e-01    -2.028259451454758372e-04
7.051501228598969218e-02    7.530374186583559393e-01    -1.665653693374072664e-06
6.330937147140502930e-02    7.342795729637145996e-01    -5.504484987905250632e-05
3.606156832018119623e-02    7.358835302241674148e-01    -2.562463093615437735e-04
8.151551753659044830e-03    7.713128056068441207e-01    -1.267928137178145895e-10
2.934792196446843818e-02    7.925462891979553337e-01    -1.402104051927581855e-04
2.697271108627319336e-02    8.140867352485656738e-01    -6.599177090432317792e-05
4.140061140060424805e-02    8.212494850158691406e-01    -4.422407902106143310e-04
1.064259561895294914e-01    7.812417011222336782e-01    -1.515018046020047287e-06
5.075507847675634482e-02    8.049018748666845191e-01    -5.075002956134523667e-04
5.124769780643205486e-02    6.202939022972860927e-01    -3.561761748001326879e-04
4.454600811004638672e-02    9.896483421325683594e-01    -4.969253732617307179e-04
2.531121419963555663e-02    9.825114805159035347e-01    -2.214883296409488056e-04
5.723511536989410106e-03    9.696993477804149997e-01    -5.136114098175168896e-06
5.726295709609985352e-02    8.830943703651428223e-01    -1.848195352260733888e-04
5.869197845458984375e-02    8.960941433906555176e-01    -9.032139750709493710e-04
5.850970745086669922e-03    8.618679046630859375e-01    -2.452602801905146106e-06
2.012806453848569634e-03    8.608725322543793190e-01    -2.315528007917427903e-07
4.714169502258300781e-01    9.443405270576477051e-01    -7.771684607108728094e-05
2.989181814973100870e-01    7.163813853923620689e-01    -2.171541081950152994e-05
3.090439438819885254e-01    7.149248123168945312e-01    -6.430858404880303563e-04
