9.614222645759582520e-01    4.084545373916625977e-02    -4.389371316360350939e-01
9.780558347702026367e-01    8.245837688446044922e-02    -4.074396591201328022e-01
9.780558347702026367e-01    8.245837688446044922e-02    -4.074396591201328022e-01
8.863988518714904785e-01    3.428089618682861328e-02    -3.825318392684042834e-01
9.970490932464599609e-01    4.795660972595214844e-01    -3.453813901503247075e-01
9.665558934211730957e-01    5.395810604095458984e-01    -3.351978880402317063e-01
9.665558934211730957e-01    5.395810604095458984e-01    -3.351978880402317063e-01
8.464438915252685547e-01    4.049384593963623047e-02    -3.343879950178577087e-01
8.464438915252685547e-01    4.049384593963623047e-02    -3.343879950178577087e-01
9.075790643692016602e-01    3.368699550628662109e-01    -3.242978711409159609e-01
9.075790643692016602e-01    3.368699550628662109e-01    -3.242978711409159609e-01
8.031502366065979004e-01    1.570857763290405273e-01    -3.073710333445225928e-01
8.031502366065979004e-01    1.570857763290405273e-01    -3.073710333445225928e-01
8.540406823158264160e-01    3.095535635948181152e-01    -2.817180934547233173e-01
8.540406823158264160e-01    3.095535635948181152e-01    -2.817180934547233173e-01
9.077268242835998535e-01    3.816716670989990234e-01    -2.778610010142257281e-01
8.581337332725524902e-01    4.371709227561950684e-01    -2.759494075023589121e-01
8.581337332725524902e-01    4.371709227561950684e-01    -2.759494075023589121e-01
9.890265464782714844e-01    2.169389128684997559e-01    -2.635352523683324732e-01
9.890265464782714844e-01    2.169389128684997559e-01    -2.635352523683324732e-01
8.015884160995483398e-01    3.949448466300964355e-01    -2.554766021981237922e-01
8.015884160995483398e-01    3.949448466300964355e-01    -2.554766021981237922e-01
7.883605360984802246e-01    1.590907573699951172e-02    -2.473884893046633116e-01
7.883605360984802246e-01    1.590907573699951172e-02    -2.473884893046633116e-01
8.062179684638977051e-01    4.607170820236206055e-01    -2.450064166278213829e-01
8.062179684638977051e-01    4.607170820236206055e-01    -2.450064166278213829e-01
8.542316555976867676e-01    1.186745762825012207e-01    -2.330472731742511960e-01
8.376618027687072754e-01    4.298891425132751465e-01    -2.247057999779509263e-01
8.376618027687072754e-01    4.298891425132751465e-01    -2.247057999779509263e-01
8.883710503578186035e-01    7.059025168418884277e-01    -2.156623078144636052e-01
8.883710503578186035e-01    7.059025168418884277e-01    -2.156623078144636052e-01
7.930769920349121094e-01    3.292211294174194336e-01    -2.063848575541621932e-01
7.930769920349121094e-01    3.292211294174194336e-01    -2.063848575541621932e-01
6.933735609054565430e-01    9.291756153106689453e-02    -2.008638721613042466e-01
9.302591681480407715e-01    7.793443202972412109e-01    -1.989543881071212661e-01
9.302591681480407715e-01    7.793443202972412109e-01    -1.989543881071212661e-01
8.087026476860046387e-01    1.595015525817871094e-01    -1.853698632198917395e-01
8.087026476860046387e-01    1.595015525817871094e-01    -1.853698632198917395e-01
7.073261737823486328e-01    9.982830286026000977e-02    -1.765848634345905110e-01
7.073261737823486328e-01    9.982830286026000977e-02    -1.765848634345905110e-01
8.327707648277282715e-01    3.185558915138244629e-01    -1.706221719203614429e-01
8.327707648277282715e-01    3.185558915138244629e-01    -1.706221719203614429e-01
7.419803142547607422e-01    2.791196703910827637e-01    -1.695098094435428526e-01
7.419803142547607422e-01    2.791196703910827637e-01    -1.695098094435428526e-01
9.098284244537353516e-01    5.952532887458801270e-01    -1.693428289609295589e-01
9.098284244537353516e-01    5.952532887458801270e-01    -1.693428289609295589e-01
9.763452410697937012e-01    2.517875432968139648e-01    -1.576487406492905474e-01
9.763452410697937012e-01    2.517875432968139648e-01    -1.576487406492905474e-01
9.264173507690429688e-01    4.535405039787292480e-01    -1.498564085687913439e-01
9.264173507690429688e-01    4.535405039787292480e-01    -1.498564085687913439e-01
6.065113544464111328e-01    8.110833168029785156e-02    -1.457632936407257662e-01
6.065113544464111328e-01    8.110833168029785156e-02    -1.457632936407257662e-01
7.871780991554260254e-01    3.260576725006103516e-02    -1.454789132516459971e-01
7.485893964767456055e-01    2.423672676086425781e-01    -1.407035260795403975e-01
7.485893964767456055e-01    2.423672676086425781e-01    -1.407035260795403975e-01
7.274727821350097656e-01    7.649105787277221680e-01    -1.348371207799174687e-01
6.934817433357238770e-01    1.850258708000183105e-01    -1.333983634606532021e-01
7.789804935455322266e-01    5.658828020095825195e-01    -1.293993161998598096e-01
7.789804935455322266e-01    5.658828020095825195e-01    -1.293993161998598096e-01
9.962506890296936035e-01    9.420735836029052734e-01    -1.272274393198505049e-01
9.962506890296936035e-01    9.420735836029052734e-01    -1.272274393198505049e-01
5.415974259376525879e-01    1.293250322341918945e-01    -1.251300546683169757e-01
5.415974259376525879e-01    1.293250322341918945e-01    -1.251300546683169757e-01
5.562044382095336914e-01    3.627756237983703613e-01    -1.228564787559738997e-01
5.562044382095336914e-01    3.627756237983703613e-01    -1.228564787559738997e-01
7.566403150558471680e-01    5.141896009445190430e-02    -1.132034912035414786e-01
5.396451950073242188e-01    4.684893488883972168e-01    -1.083884617937618117e-01
5.705108046531677246e-01    1.790741682052612305e-01    -1.078951752397953601e-01
5.705108046531677246e-01    1.790741682052612305e-01    -1.078951752397953601e-01
9.415494203567504883e-01    3.928960561752319336e-01    -1.053736150762525497e-01
9.893928766250610352e-01    9.232054948806762695e-01    -1.043482644714501389e-01
9.893928766250610352e-01    9.232054948806762695e-01    -1.043482644714501389e-01
9.973631501197814941e-01    3.061900138854980469e-01    -9.982512661871552340e-02
9.973631501197814941e-01    3.061900138854980469e-01    -9.982512661871552340e-02
5.144051909446716309e-01    8.736968040466308594e-03    -9.963952294385998443e-02
5.144051909446716309e-01    8.736968040466308594e-03    -9.963952294385998443e-02
4.982475042343139648e-01    4.793219566345214844e-01    -9.047810570948548736e-02
7.803872823715209961e-01    9.563362598419189453e-01    -8.975247630670776799e-02
9.343209862709045410e-01    1.659201979637145996e-01    -8.541337313413327470e-02
9.343209862709045410e-01    1.659201979637145996e-01    -8.541337313413327470e-02
5.350750684738159180e-01    6.807843446731567383e-01    -8.525635670379236308e-02
5.350750684738159180e-01    6.807843446731567383e-01    -8.525635670379236308e-02
5.567502379417419434e-01    7.668153643608093262e-01    -8.036809352419678476e-02
5.567502379417419434e-01    7.668153643608093262e-01    -8.036809352419678476e-02
4.108694195747375488e-01    2.165742516517639160e-01    -7.976085484753889232e-02
4.108694195747375488e-01    2.165742516517639160e-01    -7.976085484753889232e-02
8.392168283462524414e-01    3.391106128692626953e-01    -7.515673532340316765e-02
8.392168283462524414e-01    3.391106128692626953e-01    -7.515673532340316765e-02
6.336249113082885742e-01    4.639526605606079102e-01    -7.501666401746380497e-02
5.767021179199218750e-01    7.622505426406860352e-01    -7.387558007145145211e-02
5.485858321189880371e-01    8.035858273506164551e-01    -7.240200658777082299e-02
9.403243064880371094e-01    4.754207134246826172e-01    -6.248633748048287168e-02
9.403243064880371094e-01    4.754207134246826172e-01    -6.248633748048287168e-02
9.295291900634765625e-01    7.000293731689453125e-01    -6.178530488249201619e-02
9.295291900634765625e-01    7.000293731689453125e-01    -6.178530488249201619e-02
7.879872322082519531e-01    5.216202139854431152e-01    -6.057651191778726241e-02
7.879872322082519531e-01    5.216202139854431152e-01    -6.057651191778726241e-02
5.819153189659118652e-01    4.654304981231689453e-01    -5.653722108432539251e-02
5.819153189659118652e-01    4.654304981231689453e-01    -5.653722108432539251e-02
5.105137825012207031e-01    6.472643017768859863e-01    -5.518919076136695467e-02
5.105137825012207031e-01    6.472643017768859863e-01    -5.518919076136695467e-02
9.432996511459350586e-01    1.799921393394470215e-01    -5.497589631742778871e-02
5.944623947143554688e-01    1.836484670639038086e-02    -5.293327971307833224e-02
5.944623947143554688e-01    1.836484670639038086e-02    -5.293327971307833224e-02
4.584524631500244141e-01    7.627819180488586426e-01    -5.253562960462754283e-02
4.584524631500244141e-01    7.627819180488586426e-01    -5.253562960462754283e-02
5.330885648727416992e-01    7.770662903785705566e-01    -5.230764502582655601e-02
9.452721476554870605e-01    1.011961698532104492e-01    -5.194244471162657445e-02
9.452721476554870605e-01    1.011961698532104492e-01    -5.194244471162657445e-02
4.822743535041809082e-01    7.968947291374206543e-01    -5.180778172382785596e-02
7.367628216743469238e-01    8.151778578758239746e-01    -5.148338926803648630e-02
7.367628216743469238e-01    8.151778578758239746e-01    -5.148338926803648630e-02
6.103399991989135742e-01    9.185689091682434082e-01    -5.001386915405869188e-02
6.103399991989135742e-01    9.185689091682434082e-01    -5.001386915405869188e-02
8.436821103096008301e-01    5.002193450927734375e-01    -4.976852651783679471e-02
8.436821103096008301e-01    5.002193450927734375e-01    -4.976852651783679471e-02
7.751549482345581055e-01    7.476368546485900879e-01    -4.522523788141381146e-02
7.751549482345581055e-01    7.476368546485900879e-01    -4.522523788141381146e-02
7.694393396377563477e-01    7.939422130584716797e-02    -4.366687424698909720e-02
3.829393982887268066e-01    6.818931698799133301e-01    -4.298582997351020618e-02
3.254398107528686523e-01    6.295806169509887695e-02    -4.176742757053476113e-02
3.254398107528686523e-01    6.295806169509887695e-02    -4.176742757053476113e-02
8.837096095085144043e-01    3.563981652259826660e-01    -4.175228599581217587e-02
8.837096095085144043e-01    3.563981652259826660e-01    -4.175228599581217587e-02
4.126644134521484375e-01    6.054103970527648926e-01    -4.164381919089314016e-02
4.126644134521484375e-01    6.054103970527648926e-01    -4.164381919089314016e-02
9.719114303588867188e-01    3.085339069366455078e-01    -4.076237749782885694e-02
7.408764958381652832e-01    4.785414338111877441e-01    -4.048100149788837199e-02
7.408764958381652832e-01    4.785414338111877441e-01    -4.048100149788837199e-02
3.497985601425170898e-01    5.449441671371459961e-01    -4.007499080052136925e-02
5.967133641242980957e-01    5.910670757293701172e-02    -3.975125936529180781e-02
9.736957550048828125e-01    1.139776706695556641e-01    -3.946501914911337144e-02
4.879643321037292480e-01    4.923356771469116211e-01    -3.858414183937422526e-02
4.879643321037292480e-01    4.923356771469116211e-01    -3.858414183937422526e-02
3.868571519851684570e-01    4.554880857467651367e-01    -3.852805903652886665e-02
3.868571519851684570e-01    4.554880857467651367e-01    -3.852805903652886665e-02
3.552035689353942871e-01    1.720895171165466309e-01    -3.807395810947145076e-02
9.381878376007080078e-01    3.906476497650146484e-02    -3.661298498194776041e-02
9.381878376007080078e-01    3.906476497650146484e-02    -3.661298498194776041e-02
3.897076845169067383e-01    3.095585703849792480e-01    -3.604147615621791645e-02
3.451715707778930664e-01    7.165114879608154297e-01    -3.383043946715139083e-02
3.451715707778930664e-01    7.165114879608154297e-01    -3.383043946715139083e-02
9.722099900245666504e-01    6.066673398017883301e-01    -3.349754024776063072e-02
9.722099900245666504e-01    6.066673398017883301e-01    -3.349754024776063072e-02
4.484937191009521484e-01    8.755038976669311523e-01    -3.349616195502342492e-02
4.484937191009521484e-01    8.755038976669311523e-01    -3.349616195502342492e-02
4.352601170539855957e-01    7.848268747329711914e-01    -3.216949389025242079e-02
4.352601170539855957e-01    7.848268747329711914e-01    -3.216949389025242079e-02
9.587544798851013184e-01    8.547148108482360840e-01    -3.001027783450717010e-02
9.587544798851013184e-01    8.547148108482360840e-01    -3.001027783450717010e-02
2.694871425628662109e-01    1.305974125862121582e-01    -2.963694214717462611e-02
7.861939072608947754e-01    2.274565696716308594e-01    -2.890299431668081134e-02
6.303325295448303223e-01    8.532347083091735840e-01    -2.819661074899287856e-02
7.381005883216857910e-01    7.191609144210815430e-01    -2.669183701681139553e-02
3.793132901191711426e-01    9.135962724685668945e-01    -2.659572251416335992e-02
3.793132901191711426e-01    9.135962724685668945e-01    -2.659572251416335992e-02
9.176095724105834961e-01    8.711264133453369141e-01    -2.594552289024558769e-02
4.006624221801757812e-01    3.353351354598999023e-02    -2.568614910565920548e-02
3.392604589462280273e-01    7.266049981117248535e-01    -2.558956117407534814e-02
2.851510047912597656e-01    3.911710977554321289e-01    -2.545685051342306757e-02
4.284638762474060059e-01    8.766302466392517090e-01    -2.470159479892047524e-02
3.533248901367187500e-01    4.743251800537109375e-01    -2.437297456863450618e-02
6.572989821434020996e-01    6.947514414787292480e-01    -2.356599163117075596e-02
6.858198642730712891e-01    3.278779983520507812e-02    -2.355828544870924857e-02
6.858198642730712891e-01    3.278779983520507812e-02    -2.355828544870924857e-02
6.575750708580017090e-01    7.041336297988891602e-01    -2.212076218572158609e-02
7.659907937049865723e-01    8.159474134445190430e-01    -2.107479776212927911e-02
2.768938541412353516e-01    6.434906721115112305e-01    -2.089396893878709208e-02
3.258077502250671387e-01    4.391991496086120605e-01    -2.064500252347135564e-02
3.258077502250671387e-01    4.391991496086120605e-01    -2.064500252347135564e-02
8.596584200859069824e-01    2.128661870956420898e-01    -2.049726212162155531e-02
3.619713187217712402e-01    9.714210629463195801e-01    -2.043479743680700483e-02
3.619713187217712402e-01    9.714210629463195801e-01    -2.043479743680700483e-02
2.250608801841735840e-01    3.438783288002014160e-01    -1.976596093995786757e-02
2.488203644752502441e-01    3.715273141860961914e-01    -1.954407682148064443e-02
4.671010375022888184e-01    1.135278940200805664e-01    -1.908929965830657993e-02
3.744384050369262695e-01    9.020321965217590332e-01    -1.812753137699207526e-02
4.708464741706848145e-01    8.818084001541137695e-02    -1.803590848274039954e-02
4.708464741706848145e-01    8.818084001541137695e-02    -1.803590848274039954e-02
3.779380917549133301e-01    5.549790263175964355e-01    -1.771537604566672530e-02
2.396391630172729492e-01    5.759030580520629883e-01    -1.740358355105945179e-02
9.226200580596923828e-01    8.325020074844360352e-01    -1.723159308723012928e-02
2.365285158157348633e-01    6.295520067214965820e-01    -1.674561541341068605e-02
8.640437126159667969e-01    7.281240820884704590e-01    -1.644257000396992519e-02
8.640437126159667969e-01    7.281240820884704590e-01    -1.644257000396992519e-02
4.020416140556335449e-01    9.996706247329711914e-01    -1.639390895557601979e-02
4.020416140556335449e-01    9.996706247329711914e-01    -1.639390895557601979e-02
5.282250642776489258e-01    3.934052586555480957e-01    -1.615687051575454350e-02
7.559338808059692383e-01    9.170961380004882812e-02    -1.525971772449854352e-02
7.559338808059692383e-01    9.170961380004882812e-02    -1.525971772449854352e-02
7.852965593338012695e-01    9.676210284233093262e-01    -1.506675406689064398e-02
6.280737519264221191e-01    9.238188266754150391e-01    -1.472723191204011219e-02
5.691587328910827637e-01    5.198398232460021973e-01    -1.464144488896699202e-02
3.859612763929311519e-01    8.880434968076299229e-02    -1.458043029384359368e-02
1.922270059585571289e-01    2.085878849029541016e-01    -1.402712038681659841e-02
8.604727983474731445e-01    7.749080061912536621e-01    -1.399008195725523311e-02
8.604727983474731445e-01    7.749080061912536621e-01    -1.399008195725523311e-02
3.443367481231689453e-01    6.020619273185729980e-01    -1.368398164931298490e-02
3.554281592369079590e-01    9.449800848960876465e-01    -1.279680748423923931e-02
3.554281592369079590e-01    9.449800848960876465e-01    -1.279680748423923931e-02
3.148701190948486328e-01    4.648678302764892578e-01    -1.279435343005739904e-02
7.808959484100341797e-01    7.230365276336669922e-02    -1.276459032114191441e-02
3.944030404090881348e-01    2.347627282142639160e-01    -1.253021007188891839e-02
7.606243491172790527e-01    7.288619875907897949e-01    -1.234132590998077844e-02
2.310505509376525879e-01    3.682136535644531250e-01    -1.232609640933681090e-02
4.301729798316955566e-01    2.611427307128906250e-01    -1.231230782684570625e-02
4.387754201889038086e-01    8.250756263732910156e-01    -1.220486138400411757e-02
4.661285281181335449e-01    1.238291859626770020e-01    -1.206443014477561089e-02
3.995337486267089844e-01    8.593696355819702148e-02    -1.140938952285336372e-02
7.506997585296630859e-01    7.302554845809936523e-01    -1.120781725211331299e-02
9.188873171806335449e-01    4.990683197975158691e-01    -1.091479414749244384e-02
7.321258187294006348e-01    7.360863685607910156e-02    -1.072150018937004581e-02
7.321258187294006348e-01    7.360863685607910156e-02    -1.072150018937004581e-02
5.895364284515380859e-01    8.825899958610534668e-01    -1.057864681589501359e-02
1.625633627345928756e-01    2.602260143514902313e-01    -1.056373476991841719e-02
6.085380315780639648e-01    9.088913202285766602e-01    -1.034804073179105416e-02
5.627199411392211914e-01    5.455537438392639160e-01    -1.028052605290660781e-02
8.189420700073242188e-01    8.645477294921875000e-01    -1.006087139066847054e-02
4.728466868400573730e-01    1.685098409652709961e-01    -1.000862935238948197e-02
5.197895765304565430e-01    9.187709093093872070e-01    -9.970181341663140323e-03
4.373126029968261719e-01    9.416139125823974609e-02    -9.938948362138334477e-03
6.386029124259948730e-01    4.996715784072875977e-01    -9.543652064876470206e-03
4.289600253105163574e-01    4.790425896644592285e-01    -9.324661170277045649e-03
8.171417713165283203e-01    2.306884527206420898e-02    -9.114517101919352229e-03
5.764071345329284668e-01    4.817447066307067871e-01    -8.988318579887738871e-03
2.906225323677062988e-01    1.620885729789733887e-01    -8.834175552248958035e-03
2.018870115280151367e-01    1.122487187385559082e-01    -8.796739185804891906e-03
6.251817941665649414e-01    4.952405095100402832e-01    -8.735092777311602094e-03
1.528056763062551338e-01    2.910056648915804733e-01    -8.617249420612817581e-03
8.005882501602172852e-01    6.438295245170593262e-01    -8.369189256255958262e-03
9.269106388092041016e-01    9.670020937919616699e-01    -8.327144159278255381e-03
2.534361741575232863e-01    3.706146421543885516e-01    -8.287463760169864677e-03
3.951014280319213867e-01    3.242036700248718262e-01    -8.217337649366263791e-03
1.504698553098862690e-01    1.473318523635835653e-01    -8.174655604309920970e-03
1.978056430816650391e-01    1.017215847969055176e-01    -8.050174449042482236e-03
1.978056430816650391e-01    1.017215847969055176e-01    -8.050174449042482236e-03
1.567345857620239258e-01    3.504513502120971680e-01    -7.931395230554602258e-03
1.683006882667541504e-01    5.154882073402404785e-01    -7.859118617183157018e-03
2.311594486236572266e-01    2.543705701828002930e-01    -7.541541496923502910e-03
1.524374138109073074e-01    2.899909248203292322e-01    -7.517663485338155031e-03
5.380867123603820801e-01    2.538265585899353027e-01    -7.418153821786272958e-03
1.925362348556518555e-01    5.370730161666870117e-02    -7.391207512915513346e-03
1.895042061805725098e-01    8.223208189010620117e-01    -7.292282277140546380e-03
2.188117324013814924e-01    4.911727917510454872e-02    -7.021962907979716235e-03
1.659682590476666553e-01    6.180505752352924986e-01    -6.873518177564175505e-03
3.930097222328186035e-01    8.232929110527038574e-01    -6.793154773082684707e-03
1.811909229326009174e-01    5.914599131294213663e-01    -6.748715442247209088e-03
3.543396592140197754e-01    9.694250822067260742e-01    -6.737334035314800768e-03
2.057244825984051173e-01    7.031764303604274291e-01    -6.728101797157050659e-03
5.409154891967773438e-01    9.424313902854919434e-01    -6.657603851992151961e-03
1.550530791282653809e-01    3.839299082756042480e-01    -6.490904309814891221e-03
2.147014470059523672e-01    6.945791743581308797e-01    -6.391089958710591788e-03
5.674581527709960938e-01    1.863673329353332520e-01    -6.365352168883274889e-03
6.498488187789916992e-01    3.783133625984191895e-01    -6.126445148636550445e-03
6.613163352012634277e-01    7.860363721847534180e-01    -6.067957116229916008e-03
4.493602514266967773e-01    3.954178094863891602e-02    -6.030000271214813398e-03
7.391586899757385254e-01    1.045019626617431641e-01    -5.960564914787129520e-03
7.020518183708190918e-01    7.549781203269958496e-01    -5.926975765233766236e-03
1.404514266509890585e-01    6.037008220699827676e-01    -5.676738140407646196e-03
1.619233751843490721e-01    4.580798600680227040e-01    -5.639685559662916889e-03
2.350682020187377930e-01    2.995935678482055664e-01    -5.309138855914991365e-03
2.934103111120375806e-01    9.044436529951642711e-01    -5.289045557169643787e-03
6.839792728424072266e-01    9.144567847251892090e-01    -5.244213675810642863e-03
1.850407719612121582e-01    9.021810293197631836e-01    -5.184425149427140250e-03
3.828297853469848633e-01    9.398127198219299316e-01    -4.956350379763383059e-03
2.814710736274719238e-01    8.434868454933166504e-01    -4.829621864865193438e-03
1.300971508026123047e-01    4.236361980438232422e-01    -4.770072676176409336e-03
1.121187806129455566e-01    3.956364393234252930e-01    -4.731175209313017230e-03
1.716142296791076660e-01    4.878795742988586426e-01    -4.660375231879403286e-03
5.323154330253601074e-01    7.568913102149963379e-01    -4.622093652988068860e-03
4.408311843872070312e-01    8.999708890914916992e-01    -4.603126648300722920e-03
6.995130777359008789e-01    6.178199648857116699e-01    -4.485327294725426246e-03
6.326867938041687012e-01    4.371435642242431641e-01    -4.474303755050644191e-03
2.302222847938537598e-01    7.510845065116882324e-01    -4.456524947717517213e-03
5.041875839233398438e-01    4.742363095283508301e-01    -4.367582519996006385e-03
9.289936423301696777e-01    8.330626487731933594e-01    -4.341416426084438417e-03
1.003634929656982422e-01    3.780636787414550781e-01    -4.282860129118661388e-03
3.544487953186035156e-01    1.359159350395202637e-01    -4.274079330872867372e-03
8.451540470123291016e-01    9.070834517478942871e-01    -4.264258776888864809e-03
2.135668438469376929e-01    8.394346218225210432e-01    -4.106506854877302846e-03
2.417791159378860077e-01    8.115622345824504702e-01    -3.993655690026495612e-03
9.956242442131042480e-01    8.400229215621948242e-01    -3.860715671741205435e-03
6.173400715675240180e-01    8.701939951866060063e-01    -3.714974065962177354e-03
1.267802119255065918e-01    5.145772099494934082e-01    -3.647891768991366572e-03
7.595701813697814941e-01    1.207897067070007324e-01    -3.642948552797489227e-03
2.103678584098815918e-01    6.616609096527099609e-01    -3.332771050121400083e-03
2.338738516427158742e-01    1.604889452343095102e-01    -3.307470426892641317e-03
1.544328927993774414e-01    4.763352870941162109e-01    -3.264143873732217819e-03
8.323464393615722656e-01    8.963169455528259277e-01    -3.255851173008007804e-03
9.730029106140136719e-02    1.327365040779113770e-01    -3.230135648696378162e-03
7.617722749710083008e-01    8.112150430679321289e-02    -3.221262843561840949e-03
9.470467097984680560e-01    8.166316142894869401e-01    -3.162995658721595108e-03
3.727151751518249512e-01    9.627997875213623047e-03    -3.091221627495558885e-03
4.187830090522766113e-01    1.747842431068420410e-01    -3.076363940233249258e-03
4.302089810371398926e-01    7.064604163169860840e-01    -3.053083642581494797e-03
1.250618558211857301e-01    8.745024947979754826e-01    -3.009327559408479184e-03
1.697605272850646607e-01    3.592484802519986808e-01    -2.771401465879793670e-03
1.320214474748783451e-01    2.862410053074501137e-01    -2.679755780638556645e-03
4.351209998130798340e-01    2.559541463851928711e-01    -2.631060227449479125e-03
2.362761362358983264e-01    7.585490594318026192e-01    -2.579239356548381629e-03
1.194906830787658691e-01    9.017186760902404785e-01    -2.548416361903843227e-03
7.294789552688598633e-01    8.898866176605224609e-01    -2.539581954278022011e-03
3.101425202807989723e-01    9.515058113612221424e-01    -2.519259935306781932e-03
1.065352574083631848e-01    8.596065440873129626e-01    -2.395498032223327984e-03
8.564054369926452637e-01    3.704083561897277832e-01    -2.380971916120832796e-03
8.494675159454345703e-02    5.456963181495666504e-01    -2.274172716169716064e-03
6.189517378807067871e-01    6.951503753662109375e-01    -2.209645974371365808e-03
2.114418148994445801e-01    1.223325729370117188e-01    -2.025324770121642894e-03
1.400843906146695683e-01    9.083554794234565133e-01    -2.018894400674168133e-03
7.271403074264526367e-02    6.809818744659423828e-02    -2.006973364066821832e-03
5.744643211364746094e-01    6.195141673088073730e-01    -1.887940449669564666e-03
1.242312468960162092e-01    6.664951002628277665e-01    -1.865641284979879019e-03
1.304978132247924805e-01    9.721785783767700195e-01    -1.823488319479670211e-03
1.136065125465393066e-01    2.129611372947692871e-01    -1.799503366176743264e-03
4.504194855690002441e-01    9.776058793067932129e-01    -1.795670218415846252e-03
4.117576559328109398e-01    1.232499361315410186e-01    -1.757737109223626772e-03
1.998182941248599354e-01    4.384459311261546532e-01    -1.737552125578617013e-03
1.611841917037963867e-01    4.140085577964782715e-01    -1.693556253631460159e-03
1.532654274873039568e-01    1.482294628710450757e-01    -1.673728979098619649e-03
9.382236003875732422e-02    8.598006367683410645e-01    -1.645057573256548467e-03
2.275356054306030273e-01    7.200906872749328613e-01    -1.552768468019147686e-03
2.226429930600479223e-01    7.905088397002948963e-02    -1.512400778914831621e-03
1.369273279876584148e-01    2.147417240718308140e-01    -1.489916698720868040e-03
5.479593276977539062e-01    6.264406442642211914e-01    -1.478915176866961315e-03
1.086132712084917351e-01    8.625428265709211839e-01    -1.450274429708153703e-03
1.524532437324523926e-01    8.094500303268432617e-01    -1.443638257711742914e-03
1.429336552575286579e-01    7.268391795059583327e-01    -1.395896219303651179e-03
7.506412267684936523e-02    7.350267171859741211e-01    -1.389861312031144677e-03
4.537799358367919922e-01    4.996078014373779297e-01    -1.371879113571486094e-03
1.371039517574755007e-01    5.394719659919756660e-01    -1.338022456286068734e-03
6.830712389193113743e-02    7.155741300193952936e-01    -1.322899019617168560e-03
7.422024011611938477e-02    5.517185926437377930e-01    -1.261583735747503002e-03
4.173653261619056365e-01    4.479464437453579140e-01    -1.143232495146320098e-03
8.363944292068481445e-02    4.750224351882934570e-01    -1.115440265716176804e-03
6.681099510673803310e-02    7.915589240737075372e-01    -1.084056717179382847e-03
8.261626958847045898e-02    6.772769093513488770e-01    -1.078348165768147496e-03
1.486411784458864238e-01    8.204482334098907037e-01    -1.033060880424055633e-03
1.223653554916381836e-01    3.418344259262084961e-01    -1.014824110595469739e-03
2.018755037707196387e-01    9.389337999528499790e-01    -1.014640933138313611e-03
2.586603300860763621e-01    8.014280345809720041e-01    -1.013733999323813972e-03
1.363961807941126980e-01    3.533994513216306976e-01    -1.011420360810859559e-03
1.373158496629803826e-01    8.125987513054679923e-01    -5.751233642984404561e-04
9.610721595742767465e-02    8.371285256794841478e-01    -9.834900895822691787e-04
6.456649303436279297e-02    9.139454960823059082e-01    -1.621180528451421178e-08
1.003094911575317383e-01    8.934245109558105469e-01    -3.654534289383597515e-05
2.499121427536010742e-02    9.186539053916931152e-01    -1.080018810771518137e-06
6.539106369018554688e-02    9.032160043716430664e-01    -3.640126063195192607e-05
1.665061712265014648e-02    8.640848994255065918e-01    -6.392006752171994240e-09
1.995143658209637405e-02    9.353975264307009541e-01    -1.919296876023035310e-07
3.258977882318521424e-02    9.761288131509900934e-01    -1.390628836853640511e-04
1.248556507967629910e-02    9.550863831356124489e-01    -1.525857358778778290e-05
3.807998345083237618e-02    9.671014745485208008e-01    -1.651206266173702334e-04
7.005624231153279036e-02    8.972528957044634268e-01    -2.793210074624948329e-04
1.018907995119663623e-01    9.272326751423162206e-01    -8.689194637888820886e-04
1.076104735646215248e-02    9.134909899309485715e-01    -7.430413342036894586e-06
1.929362923710416927e-02    8.225823158324744311e-01    -6.282028617410489210e-05
3.194637761347939725e-02    9.911934924656389256e-01    -3.249226844674325601e-06
7.217573556926441293e-03    8.854995127995594073e-01    -2.792673991170635373e-06
8.409307142211946973e-02    9.983196434127576957e-01    -8.575348214311008391e-04
1.019401996514536918e-01    8.665436093057833356e-01    -5.618081568973147191e-05
1.157907843589782715e-01    9.936337471008300781e-01    -2.742948810872063549e-04
8.322233842000353876e-02    8.788478498041887299e-01    -4.101287646586963885e-04
2.515339219516868688e-02    9.611302000953901858e-01    -7.753224143613050346e-05
1.432670802099808294e-01    9.222736921205577643e-01    -1.047639114806818108e-04
9.461059251084702471e-02    9.600318737416960735e-01    -2.166580343127560038e-04
5.859809760678034128e-03    9.002092632121043714e-01    -1.080460418710715550e-06
1.830123308071844312e-01    9.001025422184808500e-01    -4.096865307424208584e-04
1.684966447934368450e-01    9.855753013758904446e-01    -1.893963879596068372e-04
1.515771270261574988e-01    9.829793684076516547e-01    -3.322152623992339227e-04
3.562242972850780676e-02    6.033985944288758896e-01    -1.240997222818668766e-04
7.576870918273925781e-02    6.864713430404663086e-01    -8.348587911613785523e-05
6.419166262373525444e-02    6.885932388292236306e-01    -1.311859970855596814e-07
5.451172590255737305e-02    7.670143246650695801e-01    -6.925489561295464648e-05
6.448417901992797852e-02    7.697473764419555664e-01    -1.767717463805454684e-04
8.331623734617234212e-02    6.961927053123635467e-01    -2.098224518613350494e-04
4.583155034844621500e-02    7.818848613012912008e-01    -4.047425849457973474e-04
9.005831657853212435e-02    7.369451805312957626e-01    -6.390920321942798613e-04
3.692432232788325774e-02    8.608409450282656916e-01    -4.977314070711278321e-05
1.275894686292055880e-01    9.507671627777366519e-01    -3.471641048819126829e-04
1.953135512935899321e-01    8.685060998959405199e-01    -6.264401542424645301e-05
5.320596528787142204e-02    7.123973217085423082e-01    -5.606109719681982156e-04
2.226102948188781738e-01    9.800069928169250488e-01    -9.437175199831457248e-06
2.405161530759277744e-01    9.598561788569400788e-01    -5.829853910589027650e-04
1.396479324517107823e-01    6.297157534885375885e-01    -9.568262639895870028e-05
1.378766894340515137e-01    7.093063592910766602e-01    -4.220827419259769826e-04
1.745358663961718848e-01    6.696194325958789717e-01    -1.744459776351419908e-04
9.681628212496373731e-02    6.600441834257927409e-01    -4.541181300374750826e-04
8.330195969590481475e-02    5.430238923184197430e-01    -2.558191379983495214e-05
2.240809915565271093e-01    9.610196038695174581e-01    -3.761169070259108289e-04
1.825270510601927076e-01    9.234832916852367957e-01    -2.748262610544068658e-04
1.923319828465583636e-01    6.150671340644712215e-01    -1.536534729441527407e-04
6.478899939678357811e-02    8.545343909869720367e-01    -4.613824666823123505e-04
2.553716564090605101e-01    9.011759522833316938e-01    -1.455609892989774237e-05
8.207997380001179621e-01    9.062003065999559848e-01    -8.673473469887586643e-04
3.168278013973128693e-01    9.348310913008639478e-01    -7.760969771329520161e-04
3.556728258360575268e-01    8.719916384330186343e-01    -5.497838094986023504e-04
3.061568540091721413e-01    9.991752046825446154e-01    -4.126757552326953401e-05
5.588812573721286814e-01    7.572610450222599932e-01    -9.799820183326419468e-04
4.804837631013309518e-01    5.898252566822531628e-01    -6.815565585481698921e-04
4.792670607566833496e-01    5.326146483421325684e-01    -2.804535990720529847e-04
4.551347956946688034e-01    5.283651063441044959e-01    -1.529766208037278759e-04
5.764189072468952624e-01    1.607388143210141673e-01    -1.098311681625722724e-04
4.757493734359741211e-02    2.769087553024291992e-01    -2.361817222020064439e-04
5.330269051690841170e-02    2.686656814862097842e-01    -3.871346671412010690e-07
6.293311903669964597e-03    2.707828704930779207e-01    -1.419955178109284483e-05
8.733415603637695312e-02    1.795653104782104492e-01    -8.888141494388153039e-04
7.674955646258752040e-02    1.899713020273006703e-01    -2.359753281730487162e-04
1.148870591344230974e-01    1.956734527193988160e-01    -1.261593752022330111e-05
6.736619571457783118e-02    2.318385581105023366e-02    -4.687314805972797550e-04
9.639984369277954102e-02    3.240180015563964844e-02    -1.295113259512972173e-04
7.341778278350830078e-02    7.776999473571777344e-02    -7.306841101131233713e-04
9.874025040960116018e-02    5.023009496147572833e-02    -3.135963035797992087e-05
1.071162819862365723e-01    6.240099668502807617e-02    -4.182356516622795137e-04
1.306190811421701625e-01    7.351836356000940320e-02    -7.846779206097352361e-05
6.472991941813339978e-02    1.146200513029783374e-01    -4.483532720991312937e-05
4.133272171020507812e-02    1.173231005668640137e-01    -5.063287715624539094e-04
5.738604068756103516e-02    9.673303365707397461e-02    -1.525746952548668514e-05
8.730080452455015599e-04    1.607930333609155493e-01    -3.403921716125791838e-07
7.677496122776676646e-02    1.318048017632090507e-01    -5.939284711525632220e-04
3.666211125474508337e-03    1.334147674843077884e-02    -2.310239632501637589e-06
8.993041114544844325e-03    9.241967730252438618e-02    -6.973881914219319155e-07
9.384807297430172723e-02    2.620013634763738719e-01    -1.377156172578709609e-04
1.550611257553100586e-01    2.363930344581604004e-01    -7.250388847438971832e-04
1.896294350016992092e-01    2.846243779184332579e-01    -2.018541302280516317e-04
2.014451719458317802e-01    2.644537504933632821e-01    -4.329978795202123041e-05
4.303646087646484375e-02    5.091760158538818359e-01    -5.746676003024893297e-06
2.730125188827514648e-02    4.707464575767517090e-01    -8.007954111046425565e-07
4.678148031234741211e-02    5.054808855056762695e-01    -2.265299682420947086e-04
2.880793809890747070e-02    5.499789714813232422e-01    -7.181671010549228902e-05
4.684298325527012918e-02    5.295874562126992036e-01    -3.863351717710924874e-04
5.918296697399014206e-02    4.561393333785668247e-01    -1.444002811485364584e-04
1.232813596725463867e-01    3.390977382659912109e-01    -9.918040797689733207e-04
1.138048073927951237e-01    3.712615892573360443e-01    -8.952563087105155737e-08
1.578784400287883416e-01    4.627182692382748042e-01    -9.029940216016047903e-04
1.891288161277770996e-01    4.999898672103881836e-01    -5.326152294886164328e-04
2.388738393783569336e-01    5.078915357589721680e-01    -2.118713078613169970e-05
1.498570850298078516e-01    4.519374952398468870e-01    -1.798500795284246521e-04
1.219978928565979004e-01    4.638378024101257324e-01    -6.324444499869370535e-04
7.447439528596119795e-02    4.143161962818301403e-01    -8.004477459009556135e-04
2.015412685859090114e-02    3.332742034524858177e-01    -5.293398377762099455e-05
3.201453755818671476e-02    3.273360222341867298e-01    -2.769047006747958433e-05
4.294826138716049263e-02    3.428032650956710503e-01    -1.783298845808822233e-04
4.017395377159118652e-01    5.184076428413391113e-01    -1.670324822263659988e-04
