9.260532259941101074e-01    2.917592525482177734e-01    -3.909505895031288314e-01
9.260532259941101074e-01    2.917592525482177734e-01    -3.909505895031288314e-01
9.854122996330261230e-01    2.286092042922973633e-01    -3.663571687795402210e-01
8.746956586837768555e-01    2.092883586883544922e-01    -3.355557190080232788e-01
8.746956586837768555e-01    2.092883586883544922e-01    -3.355557190080232788e-01
8.805684447288513184e-01    8.737093210220336914e-02    -2.986542067992322691e-01
8.805684447288513184e-01    8.737093210220336914e-02    -2.986542067992322691e-01
7.915354371070861816e-01    2.681636810302734375e-02    -2.949633340312231566e-01
7.915354371070861816e-01    2.681636810302734375e-02    -2.949633340312231566e-01
9.549954533576965332e-01    6.027205586433410645e-01    -2.813429487423022568e-01
9.549954533576965332e-01    6.027205586433410645e-01    -2.813429487423022568e-01
8.884178996086120605e-01    2.987679839134216309e-01    -2.613285037624888951e-01
7.445864677429199219e-01    2.823705077171325684e-01    -2.500058451557627404e-01
7.445864677429199219e-01    2.823705077171325684e-01    -2.500058451557627404e-01
7.530336380004882812e-01    1.934424042701721191e-01    -2.331115326220949413e-01
7.530336380004882812e-01    1.934424042701721191e-01    -2.331115326220949413e-01
6.963732242584228516e-01    8.920121192932128906e-02    -2.214919154238789711e-01
6.963732242584228516e-01    8.920121192932128906e-02    -2.214919154238789711e-01
7.274049520492553711e-01    6.990849971771240234e-02    -2.144740108350898788e-01
7.274049520492553711e-01    6.990849971771240234e-02    -2.144740108350898788e-01
8.979787230491638184e-01    5.290335416793823242e-02    -2.042052337724462596e-01
8.979787230491638184e-01    5.290335416793823242e-02    -2.042052337724462596e-01
7.713013887405395508e-01    1.380540132522583008e-01    -1.923257293262885526e-01
7.713013887405395508e-01    1.380540132522583008e-01    -1.923257293262885526e-01
7.351419329643249512e-01    5.940471887588500977e-01    -1.833984109608139401e-01
7.351419329643249512e-01    5.940471887588500977e-01    -1.833984109608139401e-01
7.332094907760620117e-01    2.087761759757995605e-01    -1.803224192416368610e-01
7.332094907760620117e-01    2.087761759757995605e-01    -1.803224192416368610e-01
7.702121734619140625e-01    3.658581972122192383e-01    -1.755724631162297877e-01
7.702121734619140625e-01    3.658581972122192383e-01    -1.755724631162297877e-01
6.258476972579956055e-01    2.568023800849914551e-01    -1.735980147214809255e-01
6.258476972579956055e-01    2.568023800849914551e-01    -1.735980147214809255e-01
9.698263406753540039e-01    6.707289218902587891e-01    -1.730484478731434406e-01
9.698263406753540039e-01    6.707289218902587891e-01    -1.730484478731434406e-01
9.353350996971130371e-01    8.962003588676452637e-01    -1.700204180152055933e-01
9.353350996971130371e-01    8.962003588676452637e-01    -1.700204180152055933e-01
8.192272782325744629e-01    7.243894338607788086e-01    -1.691862920873717091e-01
8.192272782325744629e-01    7.243894338607788086e-01    -1.691862920873717091e-01
6.765527725219726562e-01    2.591295242309570312e-01    -1.561200416993729356e-01
6.765527725219726562e-01    2.591295242309570312e-01    -1.561200416993729356e-01
5.563458204269409180e-01    2.810972929000854492e-02    -1.541511291066442191e-01
5.563458204269409180e-01    2.810972929000854492e-02    -1.541511291066442191e-01
7.980402708053588867e-01    5.202507972717285156e-01    -1.506803171832650778e-01
7.980402708053588867e-01    5.202507972717285156e-01    -1.506803171832650778e-01
8.480131626129150391e-01    6.257202029228210449e-01    -1.493699900786496226e-01
8.480131626129150391e-01    6.257202029228210449e-01    -1.493699900786496226e-01
7.010334134101867676e-01    6.995356082916259766e-01    -1.428610919502354137e-01
7.010334134101867676e-01    6.995356082916259766e-01    -1.428610919502354137e-01
7.787015438079833984e-01    6.269717812538146973e-01    -1.356630723930344340e-01
7.787015438079833984e-01    6.269717812538146973e-01    -1.356630723930344340e-01
6.063801050186157227e-01    4.038647413253784180e-01    -1.344432639200341673e-01
6.063801050186157227e-01    4.038647413253784180e-01    -1.344432639200341673e-01
8.399870991706848145e-01    2.693426609039306641e-01    -1.315563633875862226e-01
8.399870991706848145e-01    2.693426609039306641e-01    -1.315563633875862226e-01
9.694257378578186035e-01    4.008551239967346191e-01    -1.250534009369671795e-01
9.694257378578186035e-01    4.008551239967346191e-01    -1.250534009369671795e-01
6.347762346267700195e-01    1.252970695495605469e-01    -1.238032448532342261e-01
6.347762346267700195e-01    1.252970695495605469e-01    -1.238032448532342261e-01
9.316838383674621582e-01    5.373650789260864258e-02    -1.217378972704549062e-01
9.316838383674621582e-01    5.373650789260864258e-02    -1.217378972704549062e-01
8.393469452857971191e-01    7.378791570663452148e-01    -1.216112938889112455e-01
8.393469452857971191e-01    7.378791570663452148e-01    -1.216112938889112455e-01
6.067147850990295410e-01    9.961301088333129883e-02    -1.209567629768907165e-01
6.067147850990295410e-01    9.961301088333129883e-02    -1.209567629768907165e-01
7.456372380256652832e-01    1.297186613082885742e-01    -1.196731822550538282e-01
7.456372380256652832e-01    1.297186613082885742e-01    -1.196731822550538282e-01
6.540022492408752441e-01    3.618410229682922363e-01    -1.195963463713891756e-01
6.540022492408752441e-01    3.618410229682922363e-01    -1.195963463713891756e-01
7.474023699760437012e-01    2.042738795280456543e-01    -1.195344022884168300e-01
7.474023699760437012e-01    2.042738795280456543e-01    -1.195344022884168300e-01
5.983428359031677246e-01    3.026866912841796875e-01    -1.191211877364575511e-01
5.983428359031677246e-01    3.026866912841796875e-01    -1.191211877364575511e-01
8.402890563011169434e-01    9.557260274887084961e-01    -1.166025668155677014e-01
8.402890563011169434e-01    9.557260274887084961e-01    -1.166025668155677014e-01
5.384618639945983887e-01    2.142406702041625977e-01    -1.130778227343287451e-01
5.384618639945983887e-01    2.142406702041625977e-01    -1.130778227343287451e-01
4.802525043487548828e-01    1.532354950904846191e-01    -1.126305290944674964e-01
4.802525043487548828e-01    1.532354950904846191e-01    -1.126305290944674964e-01
9.308773279190063477e-01    9.169334769248962402e-01    -1.112276828759014291e-01
9.308773279190063477e-01    9.169334769248962402e-01    -1.112276828759014291e-01
9.157854318618774414e-01    8.589468598365783691e-01    -1.111344204529413626e-01
9.157854318618774414e-01    8.589468598365783691e-01    -1.111344204529413626e-01
7.644761800765991211e-01    5.994367599487304688e-01    -1.102692312158342069e-01
7.644761800765991211e-01    5.994367599487304688e-01    -1.102692312158342069e-01
8.735296726226806641e-01    2.608305215835571289e-02    -1.088869919150170784e-01
8.735296726226806641e-01    2.608305215835571289e-02    -1.088869919150170784e-01
9.078651070594787598e-01    6.555349826812744141e-01    -1.087570084652116076e-01
9.078651070594787598e-01    6.555349826812744141e-01    -1.087570084652116076e-01
8.183397650718688965e-01    8.994458317756652832e-01    -1.077651740124168783e-01
8.183397650718688965e-01    8.994458317756652832e-01    -1.077651740124168783e-01
6.405314803123474121e-01    1.684841513633728027e-01    -1.049579538486292707e-01
6.405314803123474121e-01    1.684841513633728027e-01    -1.049579538486292707e-01
6.165341138839721680e-01    7.013847231864929199e-01    -1.047099933640481817e-01
6.165341138839721680e-01    7.013847231864929199e-01    -1.047099933640481817e-01
4.731595516204833984e-01    1.198602914810180664e-01    -1.034098925162318522e-01
4.731595516204833984e-01    1.198602914810180664e-01    -1.034098925162318522e-01
8.932307958602905273e-01    2.575279474258422852e-01    -1.029131378118375711e-01
8.932307958602905273e-01    2.575279474258422852e-01    -1.029131378118375711e-01
8.024495244026184082e-01    3.138541579246520996e-01    -9.774258432421781273e-02
8.024495244026184082e-01    3.138541579246520996e-01    -9.774258432421781273e-02
8.139863610267639160e-01    9.454638361930847168e-01    -9.088498913680763402e-02
8.139863610267639160e-01    9.454638361930847168e-01    -9.088498913680763402e-02
8.345605134963989258e-01    5.053977966308593750e-01    -9.079763432747635366e-02
8.345605134963989258e-01    5.053977966308593750e-01    -9.079763432747635366e-02
4.680213928222656250e-01    2.528538107872009277e-01    -9.078088459686156630e-02
4.680213928222656250e-01    2.528538107872009277e-01    -9.078088459686156630e-02
5.012043118476867676e-01    5.543886423110961914e-01    -8.934576889305614888e-02
5.012043118476867676e-01    5.543886423110961914e-01    -8.934576889305614888e-02
7.605152726173400879e-01    7.123384475708007812e-01    -8.670791414119047302e-02
7.605152726173400879e-01    7.123384475708007812e-01    -8.670791414119047302e-02
7.702607512474060059e-01    7.249462604522705078e-02    -8.660604972372482058e-02
7.702607512474060059e-01    7.249462604522705078e-02    -8.660604972372482058e-02
6.492356657981872559e-01    5.502641201019287109e-01    -8.640326411372314941e-02
6.492356657981872559e-01    5.502641201019287109e-01    -8.640326411372314941e-02
8.437806367874145508e-01    9.892094731330871582e-01    -8.451273494853844825e-02
8.437806367874145508e-01    9.892094731330871582e-01    -8.451273494853844825e-02
7.686706781387329102e-01    6.854158043861389160e-01    -8.265070082693722064e-02
7.686706781387329102e-01    6.854158043861389160e-01    -8.265070082693722064e-02
4.113603830337524414e-01    1.028190255165100098e-01    -8.255631061219713407e-02
4.113603830337524414e-01    1.028190255165100098e-01    -8.255631061219713407e-02
4.394133687019348145e-01    3.292564749717712402e-01    -8.105440865776036841e-02
4.394133687019348145e-01    3.292564749717712402e-01    -8.105440865776036841e-02
5.164829492568969727e-01    1.615960597991943359e-01    -8.060643081662154097e-02
5.164829492568969727e-01    1.615960597991943359e-01    -8.060643081662154097e-02
7.207514047622680664e-01    9.435544610023498535e-01    -7.940291710139948944e-02
7.207514047622680664e-01    9.435544610023498535e-01    -7.940291710139948944e-02
8.382753133773803711e-01    4.537582993507385254e-01    -7.804517945097130815e-02
8.382753133773803711e-01    4.537582993507385254e-01    -7.804517945097130815e-02
5.897837877273559570e-01    8.411942720413208008e-01    -7.470833486945845092e-02
5.897837877273559570e-01    8.411942720413208008e-01    -7.470833486945845092e-02
5.382250547409057617e-01    7.645928859710693359e-01    -7.377105800568158067e-02
5.382250547409057617e-01    7.645928859710693359e-01    -7.377105800568158067e-02
9.498220086097717285e-01    7.971602678298950195e-01    -7.266516767158469337e-02
9.498220086097717285e-01    7.971602678298950195e-01    -7.266516767158469337e-02
4.111224412918090820e-01    6.931811571121215820e-02    -6.964954574814050114e-02
4.111224412918090820e-01    6.931811571121215820e-02    -6.964954574814050114e-02
4.169780015945434570e-01    4.044952392578125000e-01    -6.960940057723064012e-02
4.169780015945434570e-01    4.044952392578125000e-01    -6.960940057723064012e-02
3.742170929908752441e-01    9.896767139434814453e-02    -6.914460308975668712e-02
3.742170929908752441e-01    9.896767139434814453e-02    -6.914460308975668712e-02
4.442881345748901367e-01    5.627985596656799316e-01    -6.844120895190373977e-02
4.442881345748901367e-01    5.627985596656799316e-01    -6.844120895190373977e-02
6.354934573173522949e-01    6.703031063079833984e-01    -6.827478669333550410e-02
6.354934573173522949e-01    6.703031063079833984e-01    -6.827478669333550410e-02
7.585332989692687988e-01    6.892846226692199707e-01    -6.711563654433976012e-02
7.585332989692687988e-01    6.892846226692199707e-01    -6.711563654433976012e-02
4.715445041656494141e-01    2.178701758384704590e-01    -6.638869663232087326e-02
4.715445041656494141e-01    2.178701758384704590e-01    -6.638869663232087326e-02
8.470499515533447266e-01    7.144197821617126465e-01    -6.636276335446721075e-02
6.663594841957092285e-01    3.365511298179626465e-01    -6.620303829121775008e-02
9.868876934051513672e-01    8.018431663513183594e-01    -6.611211150521024982e-02
9.868876934051513672e-01    8.018431663513183594e-01    -6.611211150521024982e-02
7.287902832031250000e-01    7.897710204124450684e-01    -6.296382947825315823e-02
7.287902832031250000e-01    7.897710204124450684e-01    -6.296382947825315823e-02
8.719548583030700684e-01    2.973868846893310547e-01    -6.257871189465333273e-02
4.328669309616088867e-01    1.437087059020996094e-01    -6.188771883985876021e-02
4.328669309616088867e-01    1.437087059020996094e-01    -6.188771883985876021e-02
6.642860770225524902e-01    2.220912575721740723e-01    -6.179655158372589913e-02
6.642860770225524902e-01    2.220912575721740723e-01    -6.179655158372589913e-02
4.388666749000549316e-01    6.244350075721740723e-01    -6.178231855996264843e-02
4.388666749000549316e-01    6.244350075721740723e-01    -6.178231855996264843e-02
6.228886246681213379e-01    8.668913841247558594e-01    -6.145764698781442520e-02
6.228886246681213379e-01    8.668913841247558594e-01    -6.145764698781442520e-02
3.835989832878112793e-01    2.162289619445800781e-01    -6.069613437721979587e-02
3.835989832878112793e-01    2.162289619445800781e-01    -6.069613437721979587e-02
9.764719605445861816e-01    4.241183996200561523e-01    -6.061457252187786582e-02
9.764719605445861816e-01    4.241183996200561523e-01    -6.061457252187786582e-02
3.793660998344421387e-01    3.568056225776672363e-01    -5.863577470689970705e-02
3.793660998344421387e-01    3.568056225776672363e-01    -5.863577470689970705e-02
8.246831893920898438e-01    7.364027500152587891e-01    -5.752380960606744836e-02
8.246831893920898438e-01    7.364027500152587891e-01    -5.752380960606744836e-02
5.920949578285217285e-01    4.338169097900390625e-02    -5.702856227331486172e-02
5.920949578285217285e-01    4.338169097900390625e-02    -5.702856227331486172e-02
5.966647267341613770e-01    9.721511602401733398e-02    -5.513385549937806912e-02
5.966647267341613770e-01    9.721511602401733398e-02    -5.513385549937806912e-02
9.279863834381103516e-01    3.752983808517456055e-01    -5.336082868726975403e-02
4.104383587837219238e-01    1.352565884590148926e-01    -5.303553737435041243e-02
4.104383587837219238e-01    1.352565884590148926e-01    -5.303553737435041243e-02
6.664866209030151367e-01    2.789978981018066406e-01    -5.192091950542184614e-02
5.796767473220825195e-01    6.094518899917602539e-01    -5.164100839750847965e-02
5.796767473220825195e-01    6.094518899917602539e-01    -5.164100839750847965e-02
6.846556663513183594e-01    8.415748476982116699e-01    -5.161763964096731383e-02
9.867017865180969238e-01    5.778256058692932129e-01    -5.044801400830624394e-02
9.867017865180969238e-01    5.778256058692932129e-01    -5.044801400830624394e-02
6.959026455879211426e-01    2.486757040023803711e-01    -4.902349484186377393e-02
6.959026455879211426e-01    2.486757040023803711e-01    -4.902349484186377393e-02
7.415960431098937988e-01    8.510882258415222168e-01    -4.766411872283456835e-02
3.883386254310607910e-01    2.213659286499023438e-01    -4.651077416093910705e-02
3.883386254310607910e-01    2.213659286499023438e-01    -4.651077416093910705e-02
4.838320612907409668e-01    3.575076460838317871e-01    -4.621647434060750098e-02
4.838320612907409668e-01    3.575076460838317871e-01    -4.621647434060750098e-02
7.892473936080932617e-01    1.944819092750549316e-01    -4.573503826671896505e-02
7.892473936080932617e-01    1.944819092750549316e-01    -4.573503826671896505e-02
8.359779715538024902e-01    9.409395456314086914e-01    -4.545725486890531825e-02
8.359779715538024902e-01    9.409395456314086914e-01    -4.545725486890531825e-02
9.851746559143066406e-01    3.039526343345642090e-01    -4.534281874791393913e-02
9.851746559143066406e-01    3.039526343345642090e-01    -4.534281874791393913e-02
8.853261470794677734e-01    2.474091053009033203e-01    -4.502949595382636089e-02
8.853261470794677734e-01    2.474091053009033203e-01    -4.502949595382636089e-02
4.978017807006835938e-01    2.449297308921813965e-01    -4.385139090009890217e-02
4.978017807006835938e-01    2.449297308921813965e-01    -4.385139090009890217e-02
6.382352113723754883e-01    1.907475590705871582e-01    -4.350309272682295614e-02
6.382352113723754883e-01    1.907475590705871582e-01    -4.350309272682295614e-02
8.300593495368957520e-01    1.202896833419799805e-01    -4.343213322145933475e-02
8.300593495368957520e-01    1.202896833419799805e-01    -4.343213322145933475e-02
6.981090903282165527e-01    4.467313885688781738e-01    -4.308292023717461006e-02
3.210583925247192383e-01    3.320061564445495605e-01    -4.308134619469457249e-02
7.977030277252197266e-01    3.894346952438354492e-01    -4.209207983977451828e-02
6.263331174850463867e-01    4.676666855812072754e-01    -4.202078059524672060e-02
4.498354792594909668e-01    3.399026393890380859e-01    -4.191139444245199630e-02
3.350907564163208008e-01    3.667874932289123535e-01    -4.183011451971828387e-02
3.350907564163208008e-01    3.667874932289123535e-01    -4.183011451971828387e-02
3.916736841201782227e-01    1.559256315231323242e-01    -4.161267015540769804e-02
3.916736841201782227e-01    1.559256315231323242e-01    -4.161267015540769804e-02
8.675215244293212891e-01    9.625279903411865234e-01    -4.137478180965948465e-02
7.332909703254699707e-01    9.608998298645019531e-01    -4.002234727769277828e-02
5.517065525054931641e-01    5.754034519195556641e-01    -4.001159382397595499e-02
5.517065525054931641e-01    5.754034519195556641e-01    -4.001159382397595499e-02
9.094781279563903809e-01    5.827910900115966797e-01    -3.977755200300454180e-02
9.094781279563903809e-01    5.827910900115966797e-01    -3.977755200300454180e-02
5.810785293579101562e-01    9.680225253105163574e-01    -3.937717344340767311e-02
5.810785293579101562e-01    9.680225253105163574e-01    -3.937717344340767311e-02
8.529187440872192383e-01    9.395694136619567871e-01    -3.899328949574126790e-02
8.792026638984680176e-01    3.695148229598999023e-01    -3.849249205897562615e-02
8.792026638984680176e-01    3.695148229598999023e-01    -3.849249205897562615e-02
9.392586350440979004e-01    7.824106216430664062e-01    -3.787586950616661507e-02
6.132467985153198242e-01    6.838007569313049316e-01    -3.748841491847472451e-02
6.132467985153198242e-01    6.838007569313049316e-01    -3.748841491847472451e-02
7.204797863960266113e-01    3.669416904449462891e-01    -3.727032176677883696e-02
7.204797863960266113e-01    3.669416904449462891e-01    -3.727032176677883696e-02
6.243961453437805176e-01    4.698682427406311035e-01    -3.595893576635068173e-02
6.243961453437805176e-01    4.698682427406311035e-01    -3.595893576635068173e-02
7.983708977699279785e-01    3.063057065010070801e-01    -3.593217080055575996e-02
9.978194832801818848e-01    1.586687564849853516e-02    -3.574599259595546280e-02
6.902862787246704102e-01    1.710337400436401367e-01    -3.510703460537083209e-02
6.902862787246704102e-01    1.710337400436401367e-01    -3.510703460537083209e-02
7.484509944915771484e-01    3.758043050765991211e-02    -3.506477954521730611e-02
4.674946069717407227e-01    3.193244338035583496e-01    -3.448577806437590210e-02
4.674946069717407227e-01    3.193244338035583496e-01    -3.448577806437590210e-02
3.296310901641845703e-01    3.122749924659729004e-01    -3.424590310545205796e-02
4.868294596672058105e-01    4.843866825103759766e-02    -3.364885744486372648e-02
4.868294596672058105e-01    4.843866825103759766e-02    -3.364885744486372648e-02
6.860246062278747559e-01    9.465191960334777832e-01    -3.338525236084598918e-02
6.860246062278747559e-01    9.465191960334777832e-01    -3.338525236084598918e-02
6.516637802124023438e-01    1.604240536689758301e-01    -3.330054115268209214e-02
6.516637802124023438e-01    1.604240536689758301e-01    -3.330054115268209214e-02
3.716105222702026367e-01    3.158375024795532227e-01    -3.265565009391102613e-02
7.599492669105529785e-01    2.926394939422607422e-01    -3.161869964140549133e-02
7.599492669105529785e-01    2.926394939422607422e-01    -3.161869964140549133e-02
4.750048518180847168e-01    7.778309583663940430e-01    -3.137271060140029572e-02
2.800088524818420410e-01    3.245439529418945312e-01    -3.067950721399074696e-02
5.749666690826416016e-01    3.292121887207031250e-01    -3.058463948269325022e-02
2.714898586273193359e-01    4.437695145606994629e-01    -3.005497585631590821e-02
2.714898586273193359e-01    4.437695145606994629e-01    -3.005497585631590821e-02
4.408133625984191895e-01    3.435080051422119141e-01    -2.999705707288480294e-02
4.408133625984191895e-01    3.435080051422119141e-01    -2.999705707288480294e-02
5.915824770927429199e-01    5.338152647018432617e-01    -2.932253211644036614e-02
7.836900353431701660e-01    3.116732835769653320e-02    -2.898157931656603764e-02
7.836900353431701660e-01    3.116732835769653320e-02    -2.898157931656603764e-02
9.146152734756469727e-01    8.391979336738586426e-01    -2.859441322469732927e-02
9.146152734756469727e-01    8.391979336738586426e-01    -2.859441322469732927e-02
8.136858344078063965e-01    7.280670404434204102e-01    -2.843099570122585226e-02
8.136858344078063965e-01    7.280670404434204102e-01    -2.843099570122585226e-02
4.513579010963439941e-01    1.187359094619750977e-01    -2.791094680403296072e-02
5.372902750968933105e-01    5.794870853424072266e-02    -2.786629841606204014e-02
4.252227544784545898e-01    9.505352377891540527e-01    -2.771547878723308253e-02
4.252227544784545898e-01    9.505352377891540527e-01    -2.771547878723308253e-02
7.739831805229187012e-01    6.368226408958435059e-01    -2.738174264540938277e-02
6.695187091827392578e-01    8.563243746757507324e-01    -2.733191551903814409e-02
8.050923347473144531e-01    5.278460979461669922e-01    -2.698193234735848586e-02
6.561376452445983887e-01    8.722089529037475586e-01    -2.687721049609997914e-02
6.561376452445983887e-01    8.722089529037475586e-01    -2.687721049609997914e-02
2.664058208465576172e-01    5.147312879562377930e-01    -2.679602166531640239e-02
9.505789279937744141e-01    4.861770868301391602e-01    -2.658360116885338797e-02
9.505789279937744141e-01    4.861770868301391602e-01    -2.658360116885338797e-02
3.596636652946472168e-01    1.693141460418701172e-02    -2.570405955410178661e-02
3.596636652946472168e-01    1.693141460418701172e-02    -2.570405955410178661e-02
8.576937913894653320e-01    2.172956466674804688e-01    -2.547591237514503296e-02
3.620075583457946777e-01    5.221251845359802246e-01    -2.545186943605632496e-02
3.562660813331604004e-01    6.027226448059082031e-01    -2.462574081657046068e-02
3.562660813331604004e-01    6.027226448059082031e-01    -2.462574081657046068e-02
5.628952383995056152e-01    6.338471174240112305e-01    -2.443136605992217436e-02
5.271683335304260254e-01    9.933553338050842285e-01    -2.423437174668047547e-02
7.768829464912414551e-01    3.011002540588378906e-01    -2.369220733367320697e-02
5.058308839797973633e-01    2.451601028442382812e-01    -2.319628264638614809e-02
3.148561716079711914e-01    7.829219698905944824e-01    -2.217500694584781731e-02
5.910507440567016602e-01    2.205549478530883789e-01    -2.217317322844267191e-02
3.499020528413764874e-01    4.779371621979684459e-01    -2.172659723743384716e-02
6.568405628204345703e-01    6.956238746643066406e-01    -2.158700560999167462e-02
5.063543915748596191e-01    7.833757400512695312e-01    -2.130141770111579694e-02
3.993830680847167969e-01    8.508844971656799316e-01    -2.129743364499092975e-02
3.993056416511535645e-01    9.390515089035034180e-01    -2.102773414104057437e-02
3.993056416511535645e-01    9.390515089035034180e-01    -2.102773414104057437e-02
7.292901277542114258e-01    6.685678362846374512e-01    -2.058808263820170736e-02
2.509720325469970703e-01    5.014914870262145996e-01    -2.045776250520069117e-02
7.010931372642517090e-01    5.637041926383972168e-01    -2.042159851902436082e-02
7.010931372642517090e-01    5.637041926383972168e-01    -2.042159851902436082e-02
7.014085054397583008e-01    5.912600755691528320e-01    -2.041339091640479927e-02
8.426681160926818848e-01    8.652824163436889648e-02    -2.037589374245640100e-02
5.769317746162414551e-01    2.412071228027343750e-01    -1.990473381302388517e-02
5.769317746162414551e-01    2.412071228027343750e-01    -1.990473381302388517e-02
4.779319167137145996e-01    1.194908022880554199e-01    -1.985545720399500141e-02
4.779319167137145996e-01    1.194908022880554199e-01    -1.985545720399500141e-02
2.338264584541320801e-01    1.372180581092834473e-01    -1.984173345373677066e-02
2.345101833343505859e-01    4.853987097740173340e-01    -1.950699431253676008e-02
2.345101833343505859e-01    4.853987097740173340e-01    -1.950699431253676008e-02
3.674463033676147461e-01    2.705770134925842285e-01    -1.938891350732139043e-02
3.719433546066284180e-01    2.109512686729431152e-01    -1.936891510908108835e-02
5.338898897171020508e-01    9.502997398376464844e-01    -1.924482986512189575e-02
9.573388099670410156e-01    9.518173933029174805e-01    -1.917550671627910389e-02
9.573388099670410156e-01    9.518173933029174805e-01    -1.917550671627910389e-02
2.930174469947814941e-01    7.562802433967590332e-01    -1.900034040650083744e-02
2.930174469947814941e-01    7.562802433967590332e-01    -1.900034040650083744e-02
2.299005985260009766e-01    1.182353496551513672e-02    -1.860209917803744284e-02
8.521961824722181778e-01    9.122590510758482596e-01    -1.857241126190138300e-02
2.754517882651134064e-01    5.625972298966057661e-01    -1.837487995363094526e-02
8.791508674621582031e-01    2.012601494789123535e-01    -1.835349948708393797e-02
6.536015868186950684e-01    9.723453521728515625e-01    -1.775537572704635053e-02
4.080300927162170410e-01    5.819359421730041504e-01    -1.773787651991767800e-02
4.656016826629638672e-01    7.055378556251525879e-01    -1.756966848612184426e-02
4.656016826629638672e-01    7.055378556251525879e-01    -1.756966848612184426e-02
4.734885692596435547e-01    7.961699366569519043e-01    -1.751165181421341852e-02
4.177075624465942383e-01    2.380345463752746582e-01    -1.748869462130529448e-02
4.201932549476623535e-01    6.884372234344482422e-02    -1.743832697704264523e-02
5.464417934417724609e-01    7.973572015762329102e-01    -1.701766501926582284e-02
5.763407945632934570e-01    9.130694866180419922e-01    -1.681931232237201049e-02
5.763407945632934570e-01    9.130694866180419922e-01    -1.681931232237201049e-02
2.244744596167161377e-01    1.046182158376700033e-01    -1.634968349348769889e-02
4.093887805938720703e-01    4.228578209877014160e-01    -1.630405822747906311e-02
3.119805455207824707e-01    8.411390185356140137e-01    -1.622230720597045775e-02
6.147127747535705566e-01    5.950271487236022949e-01    -1.610016496275020609e-02
6.079134576253434341e-01    3.479185649113786805e-01    -1.583891948849886974e-02
9.344305992126464844e-01    5.741709470748901367e-01    -1.577709139413227546e-02
6.868132948875427246e-01    7.928043007850646973e-01    -1.573070666324836997e-02
7.576001286506652832e-01    5.549961328506469727e-01    -1.551046173666765018e-02
6.022583246231079102e-01    8.183557391166687012e-01    -1.544726355523478277e-02
2.091031094759566999e-01    2.241538888959042075e-01    -1.469115408085022029e-02
7.729887244535520452e-01    6.883664788155147152e-01    -1.465384569768324145e-02
6.343148946762084961e-01    7.168308496475219727e-01    -1.460429502826777158e-02
6.343148946762084961e-01    7.168308496475219727e-01    -1.460429502826777158e-02
7.131205201148986816e-01    8.641027808189392090e-01    -1.443423733138792138e-02
7.217389941215515137e-01    6.711140275001525879e-01    -1.437400983702302217e-02
2.543749213218688965e-01    7.021728754043579102e-01    -1.418832169209504647e-02
3.224919984123153505e-01    9.414077127823856639e-01    -1.392276572099357575e-02
2.485217452049255371e-01    6.159168481826782227e-01    -1.363507719286735295e-02
2.765791416168212891e-01    6.970486640930175781e-01    -1.348870982135243896e-02
5.001364946365356445e-01    6.271307468414306641e-01    -1.336476234515094133e-02
3.668233752250671387e-01    8.562030196189880371e-01    -1.327908998524651371e-02
5.064436197280883789e-01    2.926297187805175781e-01    -1.277253190146365909e-02
9.158895611763000488e-01    6.946401000022888184e-01    -1.273854049475337674e-02
9.158895611763000488e-01    6.946401000022888184e-01    -1.273854049475337674e-02
2.514883875846862793e-01    7.886319160461425781e-01    -1.268460658511108737e-02
2.031300504083385361e-01    6.212183857668575060e-01    -1.267478601669516473e-02
2.031300504083385361e-01    6.212183857668575060e-01    -1.267478601669516473e-02
2.739595770835876465e-01    7.821967005729675293e-01    -1.265141522770600428e-02
5.224975347518920898e-01    1.775455474853515625e-02    -1.243590226051795311e-02
4.048200845718383789e-01    2.655045986175537109e-01    -1.208934744105132943e-02
5.968349970764899037e-01    6.436331999961206751e-01    -1.172184965221177363e-02
6.333375573158264160e-01    9.430724382400512695e-01    -1.162342532178067128e-02
3.337518572807312012e-01    9.208649992942810059e-01    -1.155306891129443021e-02
9.019784331321716309e-01    9.112842082977294922e-01    -1.097522743963301461e-02
3.161919868821235213e-01    2.659896005303070687e-01    -1.080540469180347844e-02
3.969888825036005930e-01    7.440138340192907762e-01    -1.064944104821965824e-02
9.696509838104248047e-01    9.738622903823852539e-01    -1.037845809180792424e-02
3.146712183952331543e-01    7.954789400100708008e-01    -1.025551298587856937e-02
2.660239338874816895e-01    5.982986688613891602e-01    -1.019053557319348630e-02
3.147217035293579102e-01    6.114371418952941895e-01    -1.014153207733130627e-02
5.351000409655928269e-01    9.434147608079961334e-01    -1.012225765422588263e-02
5.351000409655928269e-01    9.434147608079961334e-01    -1.012225765422588263e-02
2.096935510635375977e-01    1.015651226043701172e-01    -9.883230896249536185e-03
2.657910808588876406e-01    6.807971974447935004e-01    -9.769102926869371178e-03
1.879037022590637207e-01    4.097818732261657715e-01    -9.715751022420950414e-03
1.917467117309570312e-01    3.690209984779357910e-01    -9.602037506872700828e-03
8.018847703933715820e-01    5.706714987754821777e-01    -9.517548046171851739e-03
1.514683365821838379e-01    3.913752436637878418e-01    -9.461745821316971602e-03
2.695648618847596434e-01    5.630034613826238044e-01    -9.373744789736394162e-03
4.509842395782470703e-01    9.350858926773071289e-01    -9.194336918515923912e-03
7.430976033210754395e-01    3.537955880165100098e-01    -9.186021826263650325e-03
2.708663344383239746e-01    8.759874701499938965e-01    -9.158564463597005517e-03
4.379071593284606934e-01    9.344115257263183594e-01    -9.143217188023196329e-03
2.715967297554016113e-01    4.187694787979125977e-01    -8.915986839125436547e-03
2.702036499977111816e-01    5.182841420173645020e-01    -8.823914415772338843e-03
1.585579098910794849e-01    5.824446821743466396e-01    -8.620016557078606645e-03
3.104613423347473145e-01    9.584977030754089355e-01    -8.547883272005457264e-03
3.999211788177490234e-01    9.465035200119018555e-01    -8.545309779300246794e-03
3.052344244459985756e-01    7.290707148513314584e-01    -8.536928684569167897e-03
1.716213226318359375e-01    5.691026449203491211e-01    -8.424441896639784516e-03
1.644958853721618652e-01    6.684302091598510742e-01    -8.325960287293316178e-03
2.306294570232924612e-01    4.048748806268903100e-01    -8.320064701474175900e-03
2.048989973763378492e-01    2.068843528680104904e-01    -8.028553632195924855e-03
2.048989973763378492e-01    2.068843528680104904e-01    -8.028553632195924855e-03
1.861987113952636719e-01    7.444298863410949707e-01    -7.974831199350142230e-03
3.429761646359824057e-01    3.661889049392248463e-01    -7.955842097895779452e-03
2.357328534126281738e-01    3.817251324653625488e-01    -7.949455703622152966e-03
2.357328534126281738e-01    3.817251324653625488e-01    -7.949455703622152966e-03
2.232615947723388672e-01    4.228736162185668945e-01    -7.824671845987802438e-03
2.232615947723388672e-01    4.228736162185668945e-01    -7.824671845987802438e-03
5.969285368919372559e-01    1.092027425765991211e-01    -7.815167812394432575e-03
6.185620427131652832e-01    2.893462181091308594e-01    -7.805075755138387444e-03
6.185620427131652832e-01    2.893462181091308594e-01    -7.805075755138387444e-03
2.769304513931274414e-01    3.759604692459106445e-01    -7.755391553266250890e-03
3.475982190828961205e-01    3.899253408184850944e-02    -7.556482688967334355e-03
1.509084105491638184e-01    9.293651580810546875e-02    -7.390640193585922002e-03
3.012379407882690430e-01    8.329743742942810059e-01    -7.354475882915182880e-03
5.284362435340881348e-01    8.974587321281433105e-01    -7.322282115002881620e-03
1.533870697021484375e-01    4.201601743698120117e-01    -7.295368012305093568e-03
2.787631750106811523e-01    2.494027018547058105e-01    -7.274303225195813578e-03
2.000362873077392578e-01    2.205795049667358398e-01    -7.162451385006033365e-03
1.881408691406250000e-01    4.484343528747558594e-01    -7.100692550786940824e-03
5.129552483558654785e-01    7.685521245002746582e-01    -6.940467434434079499e-03
7.310470833981181915e-01    7.060853353715237368e-01    -6.872319652425457406e-03
4.814964532852172852e-01    8.463979959487915039e-01    -6.785874340880397593e-03
3.715494553405358502e-01    9.511340316259010441e-01    -6.775115032332096159e-03
6.645155549049377441e-01    4.118248820304870605e-01    -6.429979991962820642e-03
2.938761645730791905e-01    1.523205307062076019e-01    -6.427285678233720517e-03
1.402389218376989544e-01    1.378938794270646168e-02    -6.320533498143776803e-03
1.274758869138293005e-01    4.447346320523133945e-01    -6.205681988707111192e-03
5.554946188504208404e-01    4.138245283810836339e-01    -6.153041105828716169e-03
7.707308530807495117e-01    1.068108081817626953e-01    -5.985372760386214151e-03
2.149577097085962341e-01    4.577239573717013510e-01    -5.961050586186893152e-03
1.983241948070027516e-01    9.848409251319806268e-01    -5.960398687889154924e-03
1.669193104534546501e-01    6.709019450717198518e-01    -5.877747826603794100e-03
5.148575901985168457e-01    9.429433345794677734e-01    -5.680964059038238860e-03
2.995404601097106934e-01    5.201705694198608398e-01    -5.641423429007466281e-03
4.130641845131466927e-01    7.413206705331961688e-01    -5.620462497399360963e-03
4.526203274726867676e-01    4.678768515586853027e-01    -5.520550896029021749e-03
1.244814991950988770e-01    4.915937781333923340e-01    -5.504652641696820316e-03
3.500753855068369225e-01    9.773582068562838288e-01    -5.495337101390951502e-03
3.655090332031250000e-01    4.698032140731811523e-02    -5.481630538903055350e-03
1.739774346351623535e-01    6.523691415786743164e-01    -5.476517476580023899e-03
3.681064192619355468e-01    9.803664484781968724e-01    -5.417939684286717655e-03
5.132434877565895670e-01    2.312117006891775683e-01    -5.403651977962217919e-03
1.659530396212712533e-01    7.015885010267274291e-01    -5.358210126842403304e-03
1.268730759620666504e-01    1.905950903892517090e-01    -5.308067653165801474e-03
4.191400586642342052e-01    7.137969396737163796e-01    -5.273020054214508541e-03
7.827669382095336914e-01    8.843684792518615723e-01    -5.272880456147460704e-03
2.822019457817077637e-01    8.446708321571350098e-01    -5.265604413685466209e-03
3.510430692135076414e-01    7.368660202075201227e-01    -5.242141553212604707e-03
6.378737092018127441e-01    6.296204924583435059e-01    -5.180786462450813479e-03
4.742187215123447319e-01    8.701274285559854604e-01    -5.017581331162393639e-03
1.707871556282043457e-01    3.183369636535644531e-01    -4.999867978482078201e-03
1.503744125366210938e-01    7.800326943397521973e-01    -4.956365468808441622e-03
2.405069402300914483e-01    8.652772055821703612e-01    -4.898943286396987944e-03
7.562561035156250000e-01    3.601387143135070801e-01    -4.877283111337981855e-03
9.851543307304382324e-01    1.464129686355590820e-01    -4.873259044934902598e-03
2.993090030464048423e-01    9.535999881921355392e-01    -4.860143328248611380e-03
2.268975182262688017e-01    6.571996849949489627e-01    -4.743993219575016324e-03
3.427782937985033862e-01    9.853271181772869092e-01    -4.644157800144503058e-03
8.473632335662841797e-01    3.055911660194396973e-01    -4.548877616904459589e-03
7.120168209075927734e-01    1.202698349952697754e-01    -4.524796334940489606e-03
1.468737721443176270e-01    8.431383371353149414e-01    -4.521073734888273084e-03
6.742762832571672638e-01    4.586388892570510967e-01    -4.483451609645970268e-03
1.157195956646439594e-01    4.036018050593117440e-02    -4.253104080186551582e-03
6.463127732276916504e-01    9.055732488632202148e-01    -4.245002311657155268e-03
7.049744129180908203e-01    4.357165694236755371e-01    -4.239464437535075091e-03
3.102521629725410457e-01    9.493563633200795548e-01    -4.100903091375169944e-03
5.911823511123657227e-01    7.579267024993896484e-03    -4.071162388998433856e-03
5.387414097785949707e-01    2.616056799888610840e-01    -3.940610833239488464e-03
6.863162517547607422e-01    7.789410948753356934e-01    -3.915555701652015386e-03
3.024064302444458008e-01    3.155589103698730469e-03    -3.915255136818977452e-03
5.334526300430297852e-01    7.148113250732421875e-01    -3.911291237880290886e-03
4.948548674583435059e-01    5.888313055038452148e-01    -3.882049205079707820e-03
4.474747180938720703e-01    7.157030105590820312e-01    -3.773173081844662883e-03
1.781359262208425387e-01    8.479056903610786566e-01    -3.769787426087973202e-03
9.774177824442520368e-01    9.851199801662383626e-01    -3.690807584745941280e-03
6.696047186851501465e-01    9.163685441017150879e-01    -3.686765886647660941e-03
1.217593675282482302e-01    3.723263002292581114e-01    -3.647992367429594204e-03
1.435204148292541504e-01    6.536716818809509277e-01    -3.562536408622753083e-03
1.482554078102111816e-01    8.155249357223510742e-01    -3.561262302941503848e-03
1.150192022323608398e-01    6.306358575820922852e-01    -3.560537830380810891e-03
7.199296951293945312e-01    5.086389183998107910e-01    -3.437401144740609774e-03
8.687757888604150103e-02    3.105991179479793973e-01    -3.414073729483834124e-03
3.174756765365600586e-01    5.464071035385131836e-01    -3.269059468587581004e-03
2.403593063354492188e-01    9.523519873619079590e-01    -3.227979716625634446e-03
3.152442252787251431e-01    8.643474775286718037e-01    -3.221591046571020255e-03
2.922352660711508565e-01    7.620344147806838997e-01    -3.218558602555390835e-03
4.667840003967285156e-01    1.167629957199096680e-01    -3.213908327156861193e-03
6.279376745223999023e-01    9.961497187614440918e-01    -3.133029775408604362e-03
3.411930203437805176e-01    7.625941634178161621e-01    -3.068410285139372331e-03
1.114648580551147461e-01    3.098028898239135742e-01    -3.065897709547286965e-03
8.695150494790673812e-02    2.593828312874797981e-01    -3.057327015225418457e-03
2.065243124961853027e-01    3.971505165100097656e-01    -3.033208034272090719e-03
7.884728908538818359e-01    4.703896045684814453e-01    -3.006093774243747720e-03
3.970513939857482910e-01    2.256501317024230957e-01    -3.003753766991815177e-03
9.598809998813011279e-02    4.179200287984190521e-01    -2.881038518098906921e-03
1.874615873749982675e-01    8.964261137498029663e-01    -2.808270404488841590e-03
7.738191485404968262e-01    5.059666633605957031e-01    -2.757304964056678590e-03
2.866341599085157066e-01    5.898551387975148330e-01    -2.693078975619045412e-03
1.449524825254859262e-01    2.950420003361868826e-01    -2.688156613067210418e-03
1.064954400062561035e-01    3.346971273422241211e-01    -2.671094873399686501e-03
1.813173294067382812e-01    9.570029973983764648e-01    -2.640421072882723728e-03
1.667419980395487555e-01    3.082015587569836845e-01    -2.621976995413402567e-03
9.140168428421020508e-01    9.895704388618469238e-01    -2.564622251963593995e-03
4.051042576890020452e-01    4.288277645397185478e-01    -2.533544294805216684e-03
2.273641398556102144e-01    3.368920904074948486e-01    -2.523736493391963084e-03
5.611299276351928711e-01    6.499581336975097656e-01    -2.507676708654244142e-03
9.929043650627136230e-01    9.158515930175781250e-01    -2.482880440338719290e-03
1.339141130447387695e-01    1.470476388931274414e-02    -2.475120872668808668e-03
1.007530093193054199e-01    7.529189586639404297e-01    -2.419151782725969570e-03
2.957139976667011450e-01    8.575187998889276519e-01    -2.401235303912248927e-03
1.639963984489440918e-01    5.975174903869628906e-01    -2.391694946279049241e-03
6.997710466384887695e-02    1.224788427352905273e-01    -2.383012896633469619e-03
1.748654842376708984e-01    4.852181673049926758e-01    -2.333936078619737019e-03
4.712895750999450684e-01    9.337157607078552246e-01    -2.268628337714287055e-03
1.340226913811186360e-01    8.062689367847409860e-01    -2.251208320866268219e-03
9.990030527114868164e-02    7.843882441520690918e-01    -2.215938987261559159e-03
4.252421259880065918e-01    7.173139452934265137e-01    -2.202739228733735510e-03
8.420333266258239746e-01    5.956730842590332031e-01    -2.201935579957878513e-03
1.203944982470921687e-01    8.544483730934242516e-01    -2.159379486157173879e-03
8.499777441242396814e-02    2.783579773247203404e-01    -2.146676591897444392e-03
3.690443070935092718e-01    7.248150781162486789e-01    -2.136825255706123992e-03
4.042493104934692383e-01    4.867724776268005371e-01    -2.088821163138524645e-03
9.591990709304809570e-02    5.136024355888366699e-01    -2.079554676535424855e-03
1.946402192115783691e-01    3.730452060699462891e-01    -2.053825635613160203e-03
9.307854175567626953e-01    4.633508324623107910e-01    -2.046967908406545963e-03
6.534541046088143679e-01    9.125161311469436320e-01    -2.025572820724843778e-03
4.853913687498485063e-01    7.392790306304154457e-01    -2.020848577230222824e-03
9.478287728062753659e-02    1.674607342195404414e-01    -2.019904098397243795e-03
2.238151201575827864e-01    8.519558435081313608e-01    -2.018865571293879287e-03
5.061654448509216309e-01    5.115990638732910156e-01    -2.001819838292601302e-03
3.025710972170733704e-01    1.381791417259693733e-01    -1.948498299220745300e-03
1.449117064476013184e-01    4.705470800399780273e-01    -1.793242244991904381e-03
9.772813320159912109e-02    7.013644576072692871e-01    -1.713808728288606330e-03
3.401228189468383789e-01    8.907280564308166504e-01    -1.686080817936465043e-03
4.803224851080605262e-01    7.548225223138657625e-02    -1.685470683056543946e-03
1.720861148667388318e-01    3.338121308484613414e-01    -1.671937683049981235e-03
1.527878036949610885e-01    3.242653773858969468e-02    -1.660793297849186539e-03
6.612660610198276001e-02    3.424262434121583265e-01    -1.644824133287974433e-03
1.033781170845031738e-01    7.181882858276367188e-02    -1.605770714241066535e-03
1.145900642030375366e-01    4.507526814586565456e-02    -1.565691818754417260e-03
2.184349537564686250e-01    7.511995638318247348e-01    -1.553488475123375760e-03
2.270398630361614156e-01    8.300843161879369880e-01    -1.500972857791897999e-03
3.297968069122577672e-01    9.617685348516462618e-01    -1.492651420714546104e-03
7.587339197944403812e-02    7.372223443441696666e-01    -1.492277202233810614e-03
2.306696005345548195e-01    3.623354357212713039e-01    -1.423387427040528072e-03
5.341160297393798828e-02    8.882188796997070312e-02    -1.413578121201351876e-03
5.727323889732360840e-01    8.599705696105957031e-01    -1.411370016072261476e-03
2.116764395708721769e-01    1.249456547462595227e-02    -1.407089674100836388e-03
1.342938196266227902e-01    8.320215431691967423e-01    -1.404813837906542526e-03
9.791729904928361816e-02    5.972948192332773187e-01    -1.396300076532931093e-03
3.088294267654418945e-01    8.625023365020751953e-01    -1.389311435660523777e-03
3.367106898933229786e-01    1.632191772228415716e-01    -1.381694275294503274e-03
6.916066350074577540e-02    5.259926607612159799e-01    -1.380213032430085236e-03
4.837576746940612793e-01    9.116950631141662598e-01    -1.360634127654323415e-03
4.022128277733343360e-01    6.575736957829132479e-01    -1.351159938712434821e-03
6.288911700248718262e-01    1.978221535682678223e-01    -1.319404065793675128e-03
2.826437354087829590e-01    2.779316902160644531e-02    -1.318650219482544322e-03
3.037827688627024458e-01    5.908131090506483218e-01    -1.310179960143741064e-03
2.040728926658630371e-01    3.873943090438842773e-01    -1.289593622662628608e-03
8.757641576651023496e-02    8.120661142733416327e-01    -1.271784341929742745e-03
2.339084148406982422e-01    4.859963655471801758e-01    -1.252055246979151722e-03
2.428804039955139160e-01    5.857176780700683594e-01    -1.191785985511792292e-03
6.107200980186462402e-01    3.294700384140014648e-01    -1.173956458058732309e-03
3.077323580897436406e-01    3.256019500982224035e-01    -1.172700112800974769e-03
4.970517056221085417e-02    2.379487674290539645e-01    -1.166403005304490238e-03
5.354319886988793270e-02    4.119458772293323467e-01    -1.151238367554194069e-03
9.189991451648454879e-02    6.906097063651497336e-01    -1.143184847046663059e-03
1.457357406616210938e-01    3.962118029594421387e-01    -1.125141804513120044e-03
3.886330723762512207e-01    2.546916604042053223e-01    -1.123643464928965894e-03
1.366302512473497877e-01    6.369669674856515140e-01    -1.099663490944701198e-03
1.343154910482264319e-01    3.780322376346976210e-01    -1.079126222735050369e-03
8.129889036511939171e-01    6.474604603161948635e-01    -1.068753869242630760e-03
5.602024793624877930e-01    8.797414898872375488e-01    -1.046946702768708666e-03
1.728387416316268799e-01    9.619360564289340942e-01    -1.043263145515430871e-03
1.275134086608886719e-01    6.924562454223632812e-01    -1.026473337198669129e-03
1.739297509193420410e-01    3.018153905868530273e-01    -1.010328509872153620e-03
2.620769143104553223e-01    9.472970962524414062e-01    -1.007176356106567229e-03
1.513169375557130159e-01    6.485426030716416879e-01    -1.004196221259814458e-03
9.695845842361450195e-02    3.979305028915405273e-01    -9.925071241987956736e-04
1.217238093633770807e-01    8.879779434671420946e-01    -9.661965408719283034e-04
1.550368070602416992e-01    6.960223913192749023e-01    -9.624859096375072568e-04
1.290919184684753418e-01    7.334485650062561035e-01    -9.570167248993883321e-04
4.114015102386474609e-01    2.406777739524841309e-01    -9.251250232025698059e-04
7.768815755844116211e-02    8.503898382186889648e-01    -9.235470673194694832e-04
3.871260935271682024e-01    2.625782841001225720e-01    -8.402685475197720598e-04
1.547546386718750000e-01    5.915205478668212891e-01    -7.971324682032944779e-04
1.141023702651874777e-01    2.177323063171397455e-01    -7.925935707407033614e-04
4.254736796342270533e-02    2.262863556094626694e-01    -7.907091351972978096e-04
1.385317431618384165e-01    5.402481299137888993e-01    -7.848730139723000473e-04
9.049693425483454345e-02    4.102944943030372160e-01    -7.716711641151286372e-04
1.046994328498840332e-01    3.280366063117980957e-01    -7.137934320738352620e-04
4.730148843319261637e-02    6.234924563168023903e-01    -7.125288245042726148e-04
1.017167736438598091e-01    7.674053638283907519e-01    -7.084257640556700184e-04
2.609711768219242778e-01    1.512898523493760583e-01    -7.066958215256694551e-04
6.432729959487915039e-02    8.674967288970947266e-01    -7.052857672993987628e-04
1.805440057097899564e-01    8.098636750403315210e-01    -6.987528335542688698e-04
6.834228038787841797e-01    4.979975223541259766e-01    -6.736242482043248775e-04
1.468730652835995854e-01    6.944967678909719222e-01    -6.697090775999070718e-04
2.863644957542419434e-01    6.487107872962951660e-01    -6.502806970290553931e-04
4.517876670837646658e-01    8.207426918645842617e-01    -6.501011227493315751e-04
1.446523231985238356e-01    7.267325916495556148e-01    -6.387853277382797698e-04
7.466331247120144843e-02    3.741890577671997398e-01    -6.244278096261650368e-04
4.650026019580003750e-02    1.165475581505910352e-01    -6.058011624352382159e-04
2.281889662037515365e-01    4.238626548342422362e-01    -5.815548774949972060e-04
5.982905626296997070e-02    5.979564189910888672e-01    -5.744881474202606295e-04
5.024884017501533018e-01    9.490590790027211288e-01    -5.615393434193752991e-04
4.258971517264543982e-02    1.395586667312256057e-01    -5.577152792007497280e-04
8.174385114827217858e-02    1.088050274867691930e-01    -5.574808294156574206e-04
6.972953677177429199e-01    4.527966976165771484e-01    -5.499851866157661482e-04
4.438438328359908813e-02    1.659649211332267504e-01    -5.427648861477944080e-04
1.863854076072936905e-01    7.428492429854384183e-01    -5.320209453415042063e-04
3.466227650642395020e-01    3.688123226165771484e-01    -5.286659056547099661e-04
4.295949845192074262e-02    7.177146748626441752e-01    -5.122307617608344446e-04
7.336028367069398481e-02    5.381485072829987892e-01    -5.097314827333219870e-04
3.488218784332275391e-01    5.484859943389892578e-01    -4.657315698251079331e-04
7.644319910893817085e-03    8.958990679748406460e-01    -3.024499203531077990e-06
6.662619113922119141e-02    9.839940667152404785e-01    -3.710025726397723480e-04
1.466894149780273438e-02    9.313853979110717773e-01    -2.593827494329309094e-06
2.314504775096667272e-02    9.820367069231014101e-01    -1.422306388334614742e-05
2.458856755747952996e-02    9.687545580507375131e-01    -2.142286426954180398e-05
5.101565021393342572e-03    9.464570790778055187e-01    -8.415008824764735106e-08
1.811755860105987090e-02    9.019166893821874975e-01    -1.637232539506499013e-05
1.683435923512662663e-02    9.872372847807884266e-01    -3.465624573667223690e-05
9.956884370085770930e-02    9.167288821049168757e-01    -3.889515810540946066e-04
6.757450103759765625e-02    9.506462812423706055e-01    -5.574372309351137607e-05
1.182214617729187012e-01    9.770302772521972656e-01    -4.385851765625445493e-04
4.212999343872070312e-02    9.204379320144653320e-01    -3.056100096163552344e-04
8.419458246627495313e-02    9.381966135349540936e-01    -1.714489597955501550e-04
1.117823902319859536e-01    9.646111733587954262e-01    -2.738488845281576256e-04
1.026905775070190430e-01    8.052384853363037109e-01    -3.136345457739244530e-04
4.457082555620835163e-02    7.995151631444342710e-01    -7.200621340466047742e-06
3.179292516039202571e-02    7.809725310386207431e-01    -2.524370685305477686e-04
1.644161048096266092e-02    8.310090403440636431e-01    -2.205146517730934735e-05
5.153578519821166992e-02    8.713538050651550293e-01    -2.892149561633835088e-05
5.750137567520141602e-02    8.311369419097900391e-01    -4.201202151247542828e-04
7.239767744449723819e-02    8.366885191018352819e-01    -5.042888784419053376e-05
1.532821577651469376e-03    8.402073511162538866e-01    -5.045868187770908878e-08
1.495171375512449261e-02    8.789431889475021187e-01    -2.100532218042426426e-06
2.500418022382011954e-02    8.821413340384420820e-01    -2.508902381065323056e-05
4.605701893755814041e-02    8.451834372334824375e-01    -3.236931466159919768e-04
7.653274333892638726e-02    6.834895219711627501e-01    -1.040475194537222392e-04
5.959751624445491780e-02    6.731780462331543591e-01    -2.606866502692648034e-04
4.152877446731489258e-02    6.811955991146524392e-01    -4.347681311293282163e-05
1.951271578078972793e-02    6.824424528030668125e-01    -1.083443293814448534e-04
6.921970844268798828e-02    7.568822503089904785e-01    -1.130596239709001524e-04
4.662283948341512663e-02    7.681041917020344778e-01    -2.031501646879397429e-05
3.285870598871492090e-03    7.445800041988029916e-01    -9.697486474157984950e-07
8.310878050144827889e-02    6.885872022438759288e-01    -3.654937212313814671e-04
8.751367229661291547e-02    6.932784454577728406e-01    -2.204830089410142664e-04
4.389456389246256668e-02    6.432741052396265813e-01    -2.063567835360849935e-05
7.092908982706089271e-02    5.570853079025408494e-01    -2.408079707112810778e-04
7.089247500303788585e-02    6.270997397032794796e-01    -1.518167901110563725e-04
2.149111340767567713e-02    6.058928437708716030e-01    -2.027650020554956468e-05
6.331952292387238446e-02    5.630701927418897412e-01    -3.223753205990943939e-05
6.975928418686482349e-03    6.011696819904447375e-01    -1.524802373154917006e-07
2.853512763977050781e-03    4.054957628250122070e-01    -8.113940189731379736e-08
8.418724222534257340e-03    4.219876949795420829e-01    -3.398909367736442598e-06
3.867148583892002917e-02    4.159304018371645095e-01    -2.502350300248100702e-05
5.545514822006225586e-02    4.986702203750610352e-01    -2.875735725715033997e-04
6.420755386352539062e-02    4.800667762756347656e-01    -5.924077672381347680e-05
5.351568704088878470e-02    4.805574425040894382e-01    -2.345492469353082407e-04
8.448181163257673792e-03    4.552272422671603813e-01    -2.071880095694310281e-06
1.200991199153806721e-03    5.349785535886937282e-01    -1.047749090652403017e-07
1.960580141436283220e-03    4.441563819143053982e-01    -1.309031081074391165e-06
3.507100422764287267e-02    5.461498733535375960e-01    -1.238869783483912866e-04
3.609664149643242864e-02    4.803223914661045035e-01    -1.624267500633604002e-04
9.009809494417781589e-03    4.196804509598974775e-01    -2.634262050392013649e-05
1.885622599480593631e-02    4.420366831170449706e-01    -1.251670238632679455e-04
5.600664969935859744e-02    5.307047090270924361e-01    -1.017543942069947942e-04
1.128763564152664850e-02    4.793313541328746430e-01    -4.951983537719758705e-06
7.906445869208632293e-02    9.744026081276381257e-01    -7.104619563210517129e-05
1.544833420482114583e-01    8.557483471710808365e-01    -1.681362362416045280e-07
1.868228754204405706e-01    9.635968457588195424e-01    -4.323789095738942573e-04
1.900363502105086033e-01    9.260075885664224016e-01    -3.023817770977177215e-04
4.473441243171691895e-01    9.981234669685363770e-01    -3.493975617684093402e-04
7.197179198265075684e-01    8.768887519836425781e-01    -2.698960207701154917e-04
1.842428691966228327e-01    5.771332634135797335e-01    -9.149235509036120575e-05
1.660450754136536256e-01    6.705657565147116195e-01    -2.885554184143436637e-04
1.153898448999347986e-01    5.902288991530267870e-01    -5.873482902112644358e-07
1.349728278047519769e-01    5.000197580175850254e-01    -5.247659202374060873e-05
1.563933491706848145e-01    7.271695137023925781e-01    -6.547703770661163344e-05
2.098610145659874360e-01    7.092070995470763917e-01    -3.832425881594337010e-04
3.327931152120641167e-01    5.784549565127294901e-01    -3.461145688766789586e-04
3.661440681936777852e-01    6.087654033581465507e-01    -3.825965534900874427e-04
2.503520065909892733e-01    6.225900251527617391e-01    -2.733499868295309005e-05
7.757313501321850824e-01    6.868980143313557774e-01    -5.048415485122313901e-05
7.469214959872144677e-01    7.783423386866391569e-01    -5.118735064041729862e-05
1.055193543434143066e-01    2.939255833625793457e-01    -8.698187450386698496e-05
9.099147769973064959e-02    3.333248902558473836e-01    -3.542878856100370238e-04
4.871505498886108398e-02    4.052610397338867188e-01    -1.609119333286494649e-04
6.866259484009436254e-03    3.172720169011384872e-01    -5.965860364432895382e-06
2.931265449525317229e-02    3.754577090206483447e-01    -1.796787703554290341e-04
1.273496640428066831e-02    2.853570868592927301e-01    -6.449554940485983446e-05
7.993979547675817907e-03    2.961726313778301201e-01    -2.074787078391482990e-05
1.138926680749879905e-02    3.060070998628827699e-01    -3.083715598154903025e-05
6.400060093317440357e-02    3.356686689149719349e-01    -4.138724507308769629e-04
1.509478807976478154e-01    3.033348998825272647e-01    -3.059015919948246051e-04
1.566562187632217773e-01    3.535907232377845100e-01    -2.035048515372111003e-04
3.004227876663208008e-01    3.756705522537231445e-01    -4.202362420417191932e-06
2.222894447326154432e-01    5.368202438802186505e-01    -2.302443423565446435e-04
1.729942565371343777e-01    5.260677404028134552e-01    -5.737520791593938750e-05
1.199758221299017658e-01    4.797364122921770613e-01    -2.823745864417304266e-05
7.472916245460510254e-01    6.054031848907470703e-02    -1.244341439637132733e-04
9.992429018020629883e-01    1.257090568542480469e-01    -4.666849381468152978e-05
8.977974208565459024e-01    7.973514448643913288e-02    -6.619150239477301049e-06
3.982193241359797686e-01    5.425788602051059839e-02    -5.410869809980825746e-05
3.169412321930460512e-03    1.406315554329791162e-01    -4.749657779817845514e-08
2.050174006680962127e-02    2.425137864328824611e-01    -1.172882267019217665e-06
5.171257257461547852e-02    1.947233676910400391e-01    -7.919225069445854292e-05
2.743719562980940357e-02    1.736615404633810034e-01    -2.999313202524617823e-04
8.617267714176343567e-04    1.897965925656598940e-01    -1.056976926736551686e-08
9.326069951666585145e-03    2.154085625888856603e-01    -3.862867425379868650e-06
4.802518705955240164e-02    2.013936281742072509e-01    -6.457592147800803804e-07
2.531373512422101929e-02    1.661007702903470884e-01    -2.720637304898688037e-04
2.646537104106437555e-02    1.851839536228428729e-01    -2.962149169359584158e-04
7.622314567646705508e-02    2.399873455672427991e-01    -8.754068382131488611e-05
1.090777323495819573e-01    2.536137039691395145e-01    -9.338164230386911460e-05
1.392335215058681241e-01    2.684501509495794136e-01    -3.030605456019841806e-04
1.517062214096164541e-01    2.798747609359829580e-01    -6.633999084615419233e-05
1.167321959350897803e-01    1.296960000344740405e-01    -3.140291509580504336e-04
8.568343310977323546e-02    4.689281843170497316e-02    -5.708163117560858392e-06
9.308926014538951299e-02    7.669933096687724106e-02    -2.665210880227653241e-04
1.104211534866883226e-01    6.514209172261432867e-02    -6.932728503328756313e-05
9.130401546964629633e-02    1.789307737090074790e-02    -2.215212297954279074e-04
2.789168818915007189e-02    1.221829610642257702e-01    -2.033213864628651346e-05
3.339031802522431785e-02    1.047310348674002495e-01    -2.293204931243381095e-04
1.944701873772430173e-02    1.068651487747346862e-01    -3.198333346311382682e-05
3.526125311769763397e-03    8.679924074917014232e-02    -5.944990192051668838e-06
